gene,g0,g1,g2,g3,g4,g5,g6,g7,g8,g9,g10,g11,g12,g13,g14,g15,g16,g17,g18,g19,g20,g21,g22,g23,g24,g25,g26,g27,g28,g29,g30,g31,g32,g33,g34,g35,g36,g37,g38,g39,g40,g41,g42,g43,g44,g45,g46,g47,g48,g49,g50,g51,g52,g53,g54,g55,g56,g57,g58,g59,g60,g61,g62,g63
A8MPY1,-5.7029276,-1.6371026,-0.6234279,-0.005863162,-0.08295834,-0.41826916,-0.32651177,-0.8531712,-0.45192838,-1.1277591,-0.51960343,0.7775645,-0.5196141,-0.35302767,-0.9273081,0.5174301,-0.9786406,0.41444278,0.04351428,-0.12335148,0.3492948,-0.67093134,0.13913772,-0.44573385,-0.440243,-0.1573987,-0.2521831,-0.09297823,-1.006926,-0.624581,-0.42902708,-0.53954315,-0.58881205,-0.12154236,-0.8528093,-0.5645005,-0.77429914,-0.45567736,-0.07997295,-0.1875356,0.046306517,-0.82390386,-0.4811037,0.022803484,-0.053781055,0.09731282,0.23532063,-0.15716378,0.022758484,-0.260848,-0.18451662,0.1723588,0.039374664,-0.20531629,0.057944942,0.014112385,0.2548973,-0.32030362,-0.4685853,0.08862879,-0.34769362,-0.18285988,0.19379047,-0.2064932
O00141,-5.6798215,-1.6235876,-0.61603653,-0.017510684,-0.07205958,-0.36615568,-0.27431366,-0.73997724,-0.31762242,-0.9017458,-0.45324808,-0.56089306,-1.164509,-0.2680071,-1.1866422,0.56072044,-1.0525382,0.49036252,0.056430314,-0.05427034,0.3367026,-0.7299433,0.17033195,-0.5072458,-0.47288427,-0.1693345,-0.2807645,-0.014969601,-1.2834897,-0.65361583,-0.39417684,-0.6644879,-0.5117217,-0.276871,-0.8860349,0.06902249,0.008165476,-0.23973419,-0.6490448,-0.36011127,0.078037694,-1.0071124,-0.9697959,-0.046774805,-0.044494614,0.086396344,0.5446894,-0.98977077,0.26444134,-1.102389,-1.4412956,1.7422674,-0.47845042,2.3708694,-0.18585692,0.13014267,-0.6100762,0.51211804,0.11745148,-0.005917369,0.065705255,0.047988024,-0.09099993,0.020574393
O00222,-5.38889,-1.3201369,-0.60628706,-0.07917627,0.30788365,-0.41324565,0.036554225,-0.7835677,-0.31929162,-0.9411794,-0.57980806,-0.58913136,-1.29608,-0.25713116,-1.2352892,0.911212,-1.1426742,0.20742649,0.059921164,0.050067168,0.31206408,-0.7644377,0.88679564,-0.7280373,-0.5968773,0.25914884,-0.70417625,-0.018701848,-2.6106977,-0.7211861,-0.50896186,-2.256122,-1.8758506,2.757167,3.868173,-0.47296476,0.07208608,0.28930515,0.30316648,0.36929837,-0.066109814,0.074140124,-0.2531369,-0.1234522,-0.06443456,-0.34789202,-0.120478116,-0.7173206,0.69916606,0.6667918,-0.0031526182,-0.7629204,-2.0431418,-0.0550996,1.0741193,0.8109346,-0.24925199,0.11990437,-1.6550218,0.5354367,-1.2326851,0.6607038,4.5811186,5.0414968
O15245,-5.2513566,-1.6636869,-0.696978,-0.19092135,-0.5407849,-0.36405972,-0.34293962,-0.74965394,-0.3719569,-0.94718266,-0.114617035,-0.35145643,-0.96528393,-0.4135277,-1.1517656,0.7677973,-0.9278885,0.28005642,0.40023065,0.043697678,0.2229689,-0.5618788,0.26642147,-0.38142017,-0.46366236,-0.55684805,-0.15210012,0.42333543,-1.0531995,-0.527768,-0.7041685,-0.69483376,-0.27111676,-0.2395413,-0.51897365,0.32249686,0.3678375,-0.08869258,-0.33950725,-0.035038225,-0.47113276,-0.64000833,-1.1109381,0.42104334,-0.22683474,-0.6961667,0.49655572,0.70711285,0.026747039,-0.53851515,-0.5465216,0.49516833,-0.26015157,-0.39119175,-0.050114118,-0.02642168,0.63667357,-0.1883426,-0.8980334,0.10412974,-0.7450831,-0.40752593,-0.16251491,-0.15218498
O15303,-5.429361,-1.3366216,-0.618466,-0.08203921,0.31386575,-0.42865363,0.033691607,-0.82373405,-0.3354503,-0.9980285,-0.6125154,-0.628434,-1.3823069,-0.2826467,-1.3356217,0.9784734,-1.2607256,0.24791403,0.07020541,0.038107045,0.37287197,-0.8985117,0.99314857,-0.85473627,-0.72038335,0.27531996,-0.88203895,-0.033051245,-3.4999924,-1.0446473,-0.7699673,-3.3907135,-3.1317275,4.842377,6.689573,-1.2016256,0.30127037,0.518072,0.50362134,0.18522325,0.16564742,1.615122,0.26396096,-0.10039303,0.064020105,-0.62335485,0.12975286,-0.9359397,0.6348932,0.7451884,0.04130023,-1.1496639,-2.339401,0.026153201,1.0955842,0.9151433,-0.36210895,0.28426003,-1.252247,0.40263337,-0.84539014,0.45743242,3.3413248,3.823182
O43603,-6.054306,-1.7949607,-0.7312743,-0.022866454,-0.10245694,-0.5448192,-0.41911128,-1.2039881,-0.5350153,-1.5750916,-0.81813616,-1.060276,-2.4019682,-0.60640633,-2.8683767,1.4149845,-3.1977797,2.1439826,0.3701587,-1.4820316,16.224592,21.910543,-2.3671925,3.4707708,2.122873,0.6847943,0.4752432,0.020777563,1.5342447,0.73252827,0.35208586,0.5174228,0.32710686,0.15203243,0.48390564,-0.03064085,-0.0035649813,0.09769152,0.24188621,0.12189525,-0.024877213,0.31296605,0.25858456,0.008640105,0.002129118,-0.020776033,-0.08297108,0.081818506,-0.011333922,0.047812868,0.045600384,-0.04080447,-0.0049424632,0.05383543,-0.0075552724,0.03522205,-0.08351684,0.1551577,0.084847875,-0.018447652,0.088376395,0.08001744,-0.10791584,0.08728706
O60674,-5.8523746,-1.7016253,-0.6672735,-0.0198143,-0.084705,-0.4391702,-0.33285794,-0.92273116,-0.4019823,-1.1589113,-0.5905773,-0.7449135,-1.6020269,-0.3822655,-1.73536,0.8331428,-1.6689773,0.8683743,0.11011789,-0.12639344,0.80621004,-1.9364359,0.49056077,-1.75786,-2.094762,-0.82542264,2.5400836,0.061658856,3.461809,1.505251,0.5546276,0.7137329,0.38061106,0.15597269,0.49538514,-0.025659317,-0.0028278108,0.07913569,0.18051912,0.082587756,-0.016346069,0.19884425,0.14583918,0.004677655,0.0031983166,-0.004859548,-0.018556185,0.021485448,-0.004109466,0.011770042,0.008227789,-0.004707093,-0.00020038435,0.0058896234,-0.0012176896,0.0007613021,-0.0012893461,-0.0026159212,-0.0018718416,0.0004037594,-0.0030078078,-0.0058223335,0.012062221,-0.010902581
O60755,-6.0028567,-1.7714543,-0.7155173,-0.022137912,-0.098326005,-0.5206026,-0.39950565,-1.1412827,-0.50566995,-1.4843036,-0.7689887,-0.9931034,-2.2359116,-0.5611075,-2.6435995,1.3009164,-2.9124289,1.9253136,0.32886314,-1.2954319,14.1501665,18.964567,-2.0378284,2.956922,1.7892787,0.57520753,0.3805817,0.016348653,1.187989,0.5629378,0.26247782,0.37748483,0.23029019,0.103713356,0.3297746,-0.019874495,-0.0022947574,0.06210413,0.1502257,0.07378421,-0.01483289,0.18515368,0.14678021,0.0043743784,-0.00040439478,-0.012091399,-0.04473352,0.035461314,-0.002776366,0.016798384,0.017894013,-0.021285051,-0.001706373,0.021390455,-0.0020984586,0.022123128,-0.03360487,0.076447,0.049501415,-0.012580319,0.052999347,0.043687373,-0.045511186,0.04057756
O60760,-6.409071,-1.9739121,-0.86378235,-0.06686407,-0.10402204,-1.0948508,-0.61911356,-3.3734927,-1.8389727,-6.872894,-3.990322,-14.328184,21.561998,1.0566471,5.2394266,-2.0575397,2.7884388,-0.12077812,0.16111484,0.14981554,-0.37977102,0.6888705,-0.034575008,0.29382572,-0.06684784,-0.09235778,-0.12080942,0.46568513,0.526259,-0.12307862,0.10644845,0.11856726,0.115861684,-0.07757761,0.26418188,0.07219114,-0.24651891,0.22105703,-0.116679095,-0.5694511,-0.28256777,0.028767362,0.37925068,-0.018998733,-0.07459299,0.28923917,0.41317979,0.14308678,-0.26175004,-0.119403616,-0.09062127,-0.12746076,-0.21987122,0.03989599,-0.035236843,0.015391078,0.14061543,-0.22733009,-0.24917373,1.4978918,0.46625122,0.11178455,-0.013940326,-0.052887954
O95153,-5.1794496,-1.6732298,-0.4405583,0.8756202,0.23897174,-0.7883078,-0.57137054,0.10468968,-0.35779995,0.16498472,0.4414636,0.03532907,-1.4340461,1.1572971,-0.8200123,0.008683464,1.7949927,0.21656851,-0.12601605,1.7031385,-1.069614,0.22216406,-0.48691952,-0.058283348,0.62824124,-0.7608878,0.004166461,2.081282,-2.7561696,1.9621233,1.6890808,-0.25001705,1.4674236,-0.9498112,-0.20439719,-0.34833637,0.0078110453,-0.52824795,0.032445725,-0.6696402,-0.6338015,-0.9831165,1.6299943,-0.31191012,-0.6771008,-0.14206392,0.019104904,0.48924202,0.85647696,0.6874566,-0.5539042,-0.39554214,-0.24488871,-0.030756287,0.17882913,-0.26229092,-0.12694941,-0.047285087,-0.2699252,-0.19062802,0.7029264,-0.5596918,-0.20553881,-0.022951694
P00519,-5.965049,-1.7524705,-0.7005144,-0.021299466,-0.09283243,-0.48598745,-0.37035063,-1.0394421,-0.45577526,-1.3226484,-0.677894,-0.86170506,-1.8788041,-0.45431548,-2.0806453,1.0043442,-2.0543835,1.1028634,0.14322042,-0.17043968,1.092572,-2.6689646,0.68435204,-2.5098574,-3.0634558,-1.216428,4.1682715,0.10533527,6.1343293,2.714112,1.0731882,1.4532732,0.84411657,0.37386584,1.190089,-0.07049033,-0.007990283,0.22713724,0.55313957,0.2734586,-0.056131907,0.7009968,0.57845545,0.022040606,0.018263653,-0.030692862,-0.14148748,0.19631213,-0.041927453,0.13583283,0.11244336,-0.06455116,-0.012084185,0.12323656,-0.023357948,0.027098471,-0.17229061,0.22840954,0.079426676,-0.006756955,0.072167255,0.083706394,-0.18161419,0.122671805
P01133,-5.5210752,-1.7035686,-0.5931708,0.38737625,-0.14071214,-0.5460839,-0.3681993,-0.3769355,-0.47802353,-0.4892899,-0.122234575,-0.32344422,-1.3530669,0.45069954,-0.9792403,0.36962166,0.22985189,0.3092008,0.035717268,0.68369526,-0.25006637,-0.33500633,0.15789124,-0.10915203,-0.049861666,-0.43313423,-0.24263743,0.7495537,-1.8161701,0.3096768,0.5055439,-0.5498889,0.6969657,-0.4730542,-0.68427545,-0.41949964,0.29406145,-0.3557854,-0.17204684,-0.78478485,-0.42923403,-0.9433556,0.5573912,0.079025485,-0.4050609,-0.07555781,0.17823462,-0.04455366,0.63703203,0.3380525,-0.20864014,0.036040727,-0.476033,-0.42700985,-0.012346818,-0.21812673,-0.05415709,-0.78176713,0.043882646,-0.21968144,0.19716653,-0.63066053,-0.3306133,0.12405347
P01303,-5.837171,-1.7161736,-0.652119,-0.009699013,-0.17269595,-0.9518607,-0.54144156,5.338407,0.29874113,-0.72224224,-0.46206754,-0.47244507,-0.41084984,-0.6254228,-0.8227562,0.5239061,-1.4818691,0.3294023,0.08551184,-0.4381257,0.58398163,-0.80303675,0.29356375,-0.5244005,-0.6612915,0.001183512,-0.34385505,-0.6495079,-0.67412126,-1.4923701,-1.2366931,-0.82355064,-1.9534461,0.52211964,-1.6582859,3.6633267,0.7155311,-4.225422,1.514457,-0.933531,-1.6256057,-1.6788381,1.9518756,-2.5191898,5.8049498,-1.8211436,1.5762858,-0.1593525,-0.42318636,-0.5542029,-0.33991012,0.81614596,0.12030168,-1.0307621,0.27441102,0.027331844,1.5075687,-3.748787,-5.491286,-4.0241566,2.8523853,9.080237,-2.2885628,0.12335246
P01584,-5.6909084,-1.6287458,-0.6195999,-0.011852512,-0.07401224,-0.37507468,-0.2814361,-0.7454861,-0.3279596,-0.8981465,-0.44894844,-0.56233907,-1.1960452,-0.24362935,-1.2106429,0.55407387,-1.0152391,0.51982915,0.009367886,0.16197515,0.17922655,-0.62859964,0.09761289,-0.49309424,-0.536714,-0.10950932,-0.288984,-0.07804235,-1.2548819,-0.7030567,-0.45280814,-0.6939442,-0.5117436,-0.26380262,-0.920298,0.0640114,0.060478136,-0.24345051,-0.6254924,-0.4310057,0.052085206,-1.1099803,-0.92484736,0.0557106,-0.023316478,0.38739824,0.12881735,-0.29060212,-0.39546436,-0.80959535,0.12071402,1.1206175,-0.644427,-1.761724,1.622511,-0.65925795,-0.44294298,-0.58331335,0.56210095,0.079302,-1.0781686,0.06970517,0.49416727,-1.0792978
P05129,-4.9796495,-1.3826245,-0.5991023,0.011977068,-0.008686478,-0.3730581,-0.18653284,-0.7531791,-0.35836577,-0.9420023,-0.17323963,-0.6482427,-1.0184891,-0.016262962,-0.9288322,0.26703382,-1.0941156,0.1697857,-0.19478789,-0.2045369,0.42729795,-0.81395453,-0.03944891,-0.11577655,-0.28788662,-0.043504007,0.14939596,-0.57751137,-1.2072784,-0.3810386,-0.061462738,-0.34095046,-0.6266233,0.059012637,-0.75964004,-0.00708656,0.3014465,-0.16401678,-0.19888894,0.42593008,0.40098435,-0.7594931,-0.6702789,0.07212271,-0.24309729,-0.7246036,0.9062117,-0.24651568,0.62319803,-0.4104745,-0.4088388,0.77636707,0.62958616,-0.65400255,0.51799816,0.073837735,-0.046232216,-0.6782938,-0.47451198,0.012960934,0.25115183,-0.60180503,0.5358402,-0.36068496
P05771,-5.5210752,-1.7035686,-0.59317076,0.38737634,-0.14071219,-0.546084,-0.36819968,-0.37693498,-0.47802368,-0.48928893,-0.12223206,-0.32344455,-1.3530663,0.45070174,-0.97924066,0.36962202,0.2298492,0.30920276,0.035718672,0.6836958,-0.2500669,-0.33500585,0.15789123,-0.10915142,-0.049861886,-0.43313226,-0.24263558,0.74955356,-1.8161694,0.30967906,0.5055439,-0.5498879,0.6969649,-0.47305343,-0.6842752,-0.41949967,0.29406118,-0.35578468,-0.17204703,-0.78478384,-0.4292333,-0.94335586,0.557392,0.07902543,-0.40506193,-0.075557366,0.17823589,-0.04455404,0.6370321,0.33805212,-0.20864,0.03604016,-0.4760329,-0.42700982,-0.012347517,-0.21812671,-0.05415695,-0.7817677,0.043882083,-0.21968187,0.1971669,-0.6306602,-0.33061355,0.12405304
P06213,-5.8588586,-1.7045528,-0.6691876,-0.019899774,-0.08517402,-0.4418658,-0.33501565,-0.9294548,-0.4050804,-1.1683453,-0.5956081,-0.7516428,-1.617974,-0.3864145,-1.7552565,0.84301025,-1.6911918,0.8818906,0.11202715,-0.12893124,0.8227243,-1.9786822,0.5017367,-1.8012366,-2.150646,-0.84798086,2.6340795,0.064181596,3.616162,1.5750768,0.58459336,0.75648147,0.40741456,0.16857839,0.535578,-0.028255722,-0.0031267253,0.087707676,0.20210685,0.09365077,-0.01865172,0.22795874,0.17093654,0.0056854826,0.004074904,-0.006361627,-0.025708497,0.031663235,-0.0063116695,0.018997235,0.014302609,-0.008192071,-0.0008951845,0.012732293,-0.0025076696,0.0022976755,-0.011279618,0.010892246,0.0028816706,-1.5456342e-05,0.0013911393,-0.0005680903,0.00070917944,-0.0030621581
P06307,-5.6909084,-1.6287458,-0.6195999,-0.011852496,-0.074012175,-0.37507433,-0.2814356,-0.7454857,-0.3279596,-0.8981482,-0.44894928,-0.5623402,-1.1960462,-0.24362871,-1.2106432,0.5540747,-1.0152373,0.5198275,0.009366957,0.16197677,0.17922671,-0.6286,0.097612634,-0.4930941,-0.53671485,-0.109508574,-0.28898394,-0.07804185,-1.254882,-0.70305586,-0.4528089,-0.6939461,-0.5117428,-0.26380116,-0.9202978,0.06401119,0.060477477,-0.24345033,-0.6254938,-0.43100524,0.052084375,-1.1099805,-0.9248477,0.055711016,-0.023316335,0.38739735,0.12881689,-0.2906013,-0.3954648,-0.80959606,0.1207141,1.1206175,-0.6444275,-1.7617236,1.6225111,-0.6592583,-0.44294325,-0.58331347,0.56209946,0.07930188,-1.0781689,0.06970352,0.4941665,-1.0792983
P06881,-5.3173575,-1.5840207,-0.45761314,0.47097796,0.3089233,-0.6010585,-0.4716937,-0.24085504,-0.18946457,-0.22371566,0.12292867,-0.18576775,-1.2081721,0.4479324,-0.98382527,0.17853498,0.557234,0.37357455,-0.108383514,0.968576,-0.5043587,-0.123287775,-0.48650154,-0.41779828,0.24388698,-0.4829313,-0.0030036548,1.3185599,-2.056274,1.0870249,0.85014266,-0.25260934,0.35771325,-0.6936332,-0.2134768,0.12217837,-0.28025058,-0.34641892,-0.25206044,-0.12851529,-0.15291637,-0.6990531,0.47940984,-0.4159059,-0.2945431,-0.027305514,0.03193194,0.25727004,0.27979144,0.14978535,-0.51454794,-0.3343244,0.251151,0.20232758,0.22768086,-0.08824007,0.21678272,0.33913738,-0.45388237,0.041614894,0.37500957,-0.08667745,0.46587703,-0.38441435
P07492,-5.8133774,-1.6834718,-0.6547009,-0.019210707,-0.08120419,-0.41839045,-0.31593522,-0.8680171,-0.37625217,-1.0789835,-0.5471825,-0.68544155,-1.4548663,-0.34229827,-1.538357,0.73374516,-1.4294305,0.706552,0.0853237,-0.08882676,0.5574856,-1.258506,0.30267784,-0.95837885,-0.95674545,-0.35061455,-0.87818646,-0.05842702,-6.5079303,-3.8729994,-7.813543,17.505049,2.663553,0.81634617,2.5788326,-0.111809,-0.012170795,0.33731374,0.75629836,0.34534943,-0.0685662,0.8389046,0.6364477,0.02198336,0.016925767,-0.027425263,-0.11900769,0.1580185,-0.032962285,0.10441948,0.08417363,-0.04813641,-0.008141379,0.08753332,-0.016631426,0.018451933,-0.11293138,0.14411649,0.048795443,-0.0038605023,0.04266615,0.046866074,-0.10203823,0.06570617
P07550,16.673376,-2.474728,-2.3285618,16.434969,-8.112039,-1.9865855,4.239171,-1.3121858,-3.0758936,-2.4177063,38.269947,-1.0161442,2.1288714,2.2969966,0.85924506,-13.969643,-3.0773108,-4.2028575,-7.6903486,-2.6828723,1.619324,-0.38940033,1.2964935,-0.5262867,0.9667625,2.274377,1.0415913,1.5565594,0.9862327,-0.599328,-0.725041,-0.20238666,1.1110173,0.38098368,0.7275162,0.8350457,-0.61650425,0.31425786,0.19301194,0.33404574,-0.91816294,0.26558593,0.45277768,3.8055272,0.35011017,-2.4662418,1.6340634,1.8969227,0.46227714,-3.005609,-3.6128273,0.1461852,-2.884272,-1.3242499,-0.6150628,-1.8034756,6.5109677,1.610276,-0.038660347,0.30866954,-3.149919,-0.2439004,-1.4826925,0.43387014
P07948,-5.8603168,-1.7052106,-0.6696171,-0.019918926,-0.085278936,-0.44247073,-0.33550045,-0.9309616,-0.40577546,-1.1704587,-0.5967343,-0.7531492,-1.6215461,-0.3873456,-1.759713,0.8452181,-1.6961628,0.8849149,0.11245406,-0.12950075,0.826414,-1.9881166,0.50423384,-1.810918,-2.1631162,-0.8530121,2.6550026,0.064742796,3.6504743,1.59059,0.59124345,0.7659564,0.41334793,0.171365,0.5444609,-0.028828254,-0.003192916,0.08959581,0.20685637,0.096081674,-0.019158503,0.23434801,0.17643291,0.005905884,0.0042653102,-0.006687108,-0.027260207,0.03386664,-0.006787875,0.020557595,0.015611384,-0.008945269,-0.0010422736,0.014205916,-0.0027867828,0.0026276507,-0.013415189,0.013774129,0.0038955852,-0.000103977356,0.0023271276,0.00053883763,-0.0016905259,-0.0014122563
P08172,-4.9848647,-1.6497862,0.382578,-0.26582897,0.93209815,-0.26484656,-1.0912333,-0.7741537,-0.34746778,-1.0032325,-0.26982978,-0.6138057,-1.1155841,-0.5482169,-1.3589116,0.81574905,-1.166162,0.93370754,-0.089935616,-0.065814,0.39120755,-0.83950865,0.2775899,-0.5821601,-0.46195763,-0.0311331,0.866405,-0.928305,-2.082618,-2.2180212,0.5033525,-1.049824,0.55691123,0.28346068,-1.5257186,0.40733317,-0.5208222,-0.5035214,-1.375625,-0.42828897,-0.4766238,-1.4017888,-2.3693233,1.4048593,0.037430935,-0.1811799,4.254042,0.7648162,-1.6821293,3.477112,1.9073446,-2.4340029,2.8139405,1.3391252,1.0972779,-0.20339482,0.2954417,2.5343218,0.18223524,0.32912806,-0.9749606,0.5620411,-1.1845793,0.5322186
P08173,-4.9520774,-1.6495794,0.46326926,-0.2849988,1.0973998,-0.25684544,-1.1562533,-0.7786935,-0.35162535,-1.0172062,-0.22311492,-0.6223086,-1.0990717,-0.6321321,-1.4357413,0.82206744,-1.1746697,0.9051399,-0.04544736,-0.060962353,0.39376017,-0.85673165,0.2429075,-0.59362394,-0.45868185,-0.0030678327,0.91287535,-0.9812807,-2.1440542,-2.2965872,0.5420678,-1.0791645,0.5777867,0.27733317,-1.584511,0.41958624,-0.5459336,-0.5327395,-1.4520667,-0.4543209,-0.5018349,-1.4597837,-2.5056617,1.4927623,0.044489168,-0.20236123,4.594313,0.85888785,-1.8293611,3.7949724,2.0829847,-2.6618736,3.0770462,1.4736855,1.2065208,-0.22644952,0.29959038,2.8162048,0.21448399,0.3695505,-1.0859474,0.63932276,-1.3371979,0.60775864
P08581,-5.854006,-1.7023624,-0.6677556,-0.019835675,-0.084823824,-0.43984833,-0.33340025,-0.92442447,-0.4027622,-1.1612872,-0.5918431,-0.7466073,-1.606042,-0.38330963,-1.740371,0.835628,-1.6745712,0.871778,0.11059911,-0.12703285,0.810368,-1.947074,0.49337554,-1.7687833,-2.108835,-0.83110267,2.5637531,0.062294703,3.5006778,1.522835,0.5621748,0.7244981,0.38736022,0.15914795,0.5055064,-0.02631297,-0.0029039748,0.08129363,0.18595536,0.08537439,-0.016926685,0.20617592,0.15215935,0.004930336,0.0034187506,-0.005236894,-0.020356193,0.024048334,-0.004663883,0.013589661,0.009757116,-0.0055845026,-0.0003742541,0.0076129087,-0.0015440664,0.001147468,-0.003805116,0.0007859698,-0.00067440147,0.00029837512,-0.0018997805,-0.0044989344,0.009203321,-0.008928402
P08588,13.052723,-2.2151272,-5.2196746,15.268037,-6.5882754,-2.1857302,6.2935286,-1.1354594,-2.7678258,-1.8844973,34.973904,-1.050709,1.7221836,2.4505293,0.97914726,-12.0668955,-2.341731,-4.544384,-7.904068,-2.2356317,1.3024007,-0.24905524,0.6732856,-0.18739685,0.5136293,0.2813315,-0.10931851,0.7216676,0.7665296,-0.13893911,-0.3422301,-0.08749841,0.5251708,-0.9050616,0.5923279,-0.03460121,-0.27791858,-0.37471986,0.062965564,0.34664556,2.5161629,0.2526559,2.5475943,0.9592635,1.1054792,1.5143911,0.7921218,-3.4915295,1.1693158,1.2149166,1.1725265,-1.7128512,4.509307,1.0623453,2.449067,1.6065302,-7.1048727,-1.9040172,1.2825298,0.25507572,2.1757183,1.5064502,2.3185115,-0.9238323
P08908,-5.18625,-1.6459836,-0.027813533,-0.16670732,0.22326232,-0.30496928,-0.7576386,-0.75160015,-0.3280327,-0.93813485,-0.45576125,-0.5750812,-1.17506,-0.21645749,-1.0614647,0.75821924,-1.1160376,0.97423786,-0.22785446,-0.08094058,0.37252256,-0.75867385,0.38412938,-0.5273729,-0.46990654,-0.14556694,0.5604196,-0.6251817,-1.7432411,-1.7306951,0.26034862,-0.88315725,0.35955915,0.24097763,-1.2127628,0.31871608,-0.36524102,-0.35874584,-0.9895885,-0.31324545,-0.32050434,-1.1031318,-1.6632951,0.91324204,0.0049749482,-0.078603484,2.5392625,0.301231,-0.9421495,1.8904403,1.0248511,-1.3099141,1.5324993,0.6704422,0.57791954,-0.10203846,0.28012103,1.1695677,0.027743347,0.14666691,-0.47717863,0.19855893,-0.45344487,0.16846368
P08912,28.733963,2.6280296,32.021065,-5.88641,40.415737,1.6933124,-10.60058,-0.17515162,-0.52492046,-1.4877485,9.378104,-0.8363498,3.8009398,-12.210161,-10.1207075,-0.2349341,0.57706606,-7.088799,5.8111343,0.7222141,-0.42344445,-0.33750674,-3.494237,-0.1622573,0.8203021,2.1217737,0.2215185,-2.3793669,-0.4069587,1.240911,0.47609073,0.25890502,0.30564654,0.13977051,-0.12517297,-0.17907335,0.15637054,-0.0024221756,0.2602688,-0.20218989,-0.84511125,0.4239723,-0.29108587,-0.58149135,0.038836554,0.31869867,-0.14405647,-1.1869844,0.65719813,-0.49430442,-0.34929618,0.3276206,1.7126296,-0.6059861,1.3503087,-0.15691619,0.83919936,1.2326844,-1.6059645,-0.24496198,-0.3270829,-1.2477179,-0.42883778,0.1342179
P08913,-5.182602,-1.6462275,-0.023318334,-0.16786067,0.2255316,-0.3045536,-0.7614133,-0.751825,-0.32817402,-0.9385993,-0.45587704,-0.5753171,-1.17543,-0.21613228,-1.0608348,0.75990754,-1.1168721,0.9781588,-0.23002496,-0.08117271,0.3729652,-0.7592768,0.38587224,-0.5278263,-0.47018233,-0.14549275,0.566675,-0.62990725,-1.7480801,-1.7396914,0.2649306,-0.885709,0.36552224,0.24451174,-1.2167729,0.32078308,-0.3681056,-0.36017242,-0.9937026,-0.3137824,-0.32337725,-1.1065576,-1.6715537,0.9204834,0.0051857424,-0.07951266,2.5573857,0.30569103,-0.94988716,1.9065714,1.0340674,-1.3207748,1.5441735,0.6771137,0.58209866,-0.10248631,0.2800473,1.1816455,0.02903833,0.14770275,-0.47985274,0.20130827,-0.45957583,0.17159702
P09619,-5.9898367,-1.7636538,-0.70782363,-0.021625988,-0.09461769,-0.49627247,-0.37858608,-1.0650724,-0.46758586,-1.3585942,-0.6970632,-0.88734114,-1.9395393,-0.4701208,-2.1563814,1.0418893,-2.1388783,1.1542418,0.15047047,-0.18008007,1.155236,-2.8292127,0.72673553,-2.6742501,-3.2751215,-1.3018525,4.5232396,0.11485121,6.71609,2.9771712,1.185875,1.6138192,0.9445685,0.42101502,1.3404095,-0.080166176,-0.009103582,0.2590511,0.6333955,0.3145099,-0.06468532,0.8088744,0.67120296,0.025753547,0.021470647,-0.03618136,-0.16757762,0.23334865,-0.049931888,0.16205265,0.13442707,-0.07719525,-0.014564781,0.14794561,-0.028034754,0.03263663,-0.20808206,0.2766023,0.096384615,-0.0082375165,0.087814346,0.1021255,-0.22166957,0.15014517
P09917,-5.4864287,-1.6675799,-0.35514447,0.4137982,-0.10580312,-0.39448622,-0.33593467,-0.76061934,-0.32258332,-0.9341057,-0.94853723,-0.5321724,-1.5222806,0.60785323,-0.6792421,0.25180662,-1.1924057,0.45703906,0.6450743,0.24120101,0.18144925,-0.7677755,0.8348099,-1.0298089,1.7176381,0.36452225,1.0099256,-0.504044,-2.0038025,0.5525576,-1.5901604,-1.2833325,0.2305877,-1.2498069,-1.494505,-0.14039807,0.017548729,-2.454562,-0.78482,1.4872904,1.2318618,2.4954958,-2.0301197,1.7126037,1.3481301,-1.5020723,-2.9214008,-0.55053264,0.25387043,0.24518421,0.18222784,-0.08741922,0.41382703,0.049516555,0.032000374,0.029377727,-0.021499667,0.059664957,0.064936794,-0.042077437,0.0480309,-0.048091833,-0.009265818,-0.053500514
P0DMS8,-6.0534105,-1.8227799,-0.39364564,1.1439588,-0.42653847,-2.841268,-3.1456537,-3.9884036,-10.590829,39.514057,-0.2582083,-0.7089355,7.6789684,-3.676768,3.2625625,0.60976446,-4.4255424,-0.101839855,1.3333689,-3.2009284,2.2121537,-1.0901006,0.5282063,-0.07974848,-0.66096586,-0.1507133,-0.7849835,-2.022584,2.24183,-1.328381,-2.8503997,-0.21379104,-1.8698612,1.1074046,-1.2637433,-0.92951936,0.112587914,0.46879378,-1.3380946,0.6369287,0.049656827,0.92151046,-1.1233215,-0.26367685,0.3053266,-1.4741069,0.9438389,-1.6862515,0.37015504,0.29355612,-0.14157756,-1.0707256,-0.80048454,-0.017054232,-1.1947035,-5.1491027,-1.1341324,-0.37973416,-0.36171925,0.008911383,-0.23230423,-0.15021768,0.19513136,-0.1840624
P11229,-4.938471,-1.6538866,0.51032245,-0.48047516,-0.200966,-0.29117218,-0.88468724,-0.7720944,-0.33003184,-0.97224605,-0.37818357,-0.5975834,-1.1589515,-0.32176244,-1.0948477,0.9840497,-1.1199341,1.2852557,-0.302955,-0.08823294,0.4037028,-0.8327137,0.30139065,-0.543892,-0.55154663,-0.3070449,0.37945998,-0.6830701,-1.842064,-2.0577753,0.41937637,-1.0134513,0.66271627,0.46362108,-1.4802896,0.23389472,-0.28777954,-0.47995082,-1.0730252,-0.25349975,-0.35079658,-1.3178307,-2.0528984,0.94817394,-0.32677522,-0.7573426,3.3567033,0.57673544,-1.4253461,2.6921365,1.5772246,-1.8412594,2.4431696,1.0307069,1.00375,-0.10454852,0.23168439,2.0695832,0.12619437,0.27792656,-0.6940631,0.57193506,-0.7029144,0.2951009
P11362,-5.8529243,-1.7018738,-0.667436,-0.019821452,-0.084745646,-0.43939796,-0.33303958,-0.92330176,-0.4022446,-1.159712,-0.59100324,-0.74548346,-1.6033785,-0.38261628,-1.7370477,0.83398014,-1.670862,0.8695207,0.11028074,-0.12660833,0.80761075,-1.940019,0.49150848,-1.7615381,-2.0995018,-0.8273364,2.5480564,0.061873376,3.4749014,1.5111737,0.5571697,0.71735895,0.38288286,0.1570412,0.49879417,-0.025881168,-0.0028526043,0.079862036,0.1823498,0.083527096,-0.016541978,0.2013141,0.14796749,0.0047625895,0.0032730442,-0.0049865106,-0.019162059,0.022348497,-0.004296369,0.012382988,0.008742992,-0.005002194,-0.00025880625,0.006470376,-0.0013279502,0.00089076575,-0.0021370703,-0.001469578,-0.001469228,0.0003687537,-0.0026343437,-0.0053767003,0.011098773,-0.010238343
P12821,-5.6909084,-1.6287458,-0.6195999,-0.011852499,-0.07401218,-0.37507433,-0.28143573,-0.7454858,-0.3279596,-0.8981481,-0.44894907,-0.56234014,-1.1960461,-0.24362853,-1.210643,0.5540743,-1.0152386,0.51982844,0.009367582,0.1619756,0.17922711,-0.628599,0.09761357,-0.49309367,-0.5367147,-0.10950958,-0.28898376,-0.07804211,-1.254881,-0.7030573,-0.45280853,-0.69394463,-0.5117458,-0.2638015,-0.9202989,0.064010955,0.06047761,-0.24345136,-0.62549365,-0.43100503,0.052084357,-1.1099806,-0.9248474,0.05571032,-0.02331583,0.38739848,0.12881689,-0.2906018,-0.3954642,-0.8095955,0.12071285,1.1206179,-0.644427,-1.7617236,1.622511,-0.65925825,-0.44294345,-0.58331376,0.56209993,0.079301566,-1.0781691,0.069704436,0.49416712,-1.0792978
P13945,-3.306363,-1.5360062,-1.5556285,3.2162688,-2.2811782,-1.1062692,2.3904202,-1.2864506,-1.4332967,-1.8637006,14.775789,-1.1986431,-0.33604553,1.4343505,-0.26212597,-6.614467,-3.1314204,-2.523205,-7.886076,-2.4018123,1.858659,-1.4177356,0.30383635,-1.6200361,0.9580993,5.041326,2.7502499,2.5683587,0.20172986,-2.8462193,-3.6097038,-1.5931867,-0.61789215,1.5621862,-2.5649157,-1.9126699,0.5244378,-0.24337861,-0.7743026,-1.947342,-3.9847696,1.2143606,-5.7826066,-10.77849,-2.8056169,2.7374947,-4.490293,1.5684863,-3.4450822,3.3674793,5.053495,2.3310866,-2.1616633,0.8426374,-3.0048733,0.6210618,0.058280844,0.389134,-1.7255645,-0.9304472,1.8162347,-1.7643969,-1.2626855,1.0324509
P14416,69.56097,-4.4652796,12.0260105,45.950405,-14.880107,1.7447054,-2.022207,0.19228344,2.5794404,0.27727303,-22.99353,0.29946804,-0.5659913,-4.2669024,-5.557549,-2.381729,-0.10548593,-7.5428147,3.5315735,-0.06209107,0.06546289,-0.3764685,-0.5236885,-1.803625,4.4971037,12.910055,10.013013,8.307059,0.48542106,-3.2668853,-7.307785,-3.5827174,3.974883,0.3350975,1.249774,1.1581662,-0.8323335,0.3362424,0.6698855,1.7092735,-0.058442894,-1.5511687,-0.24754359,1.8467801,0.27435187,0.7312282,1.7019167,0.17759846,0.34895587,0.16384214,0.0065575726,0.38351646,-0.40544704,-0.15616006,-0.35982874,0.031998135,-0.6072426,-1.0179906,-0.15537608,-0.30829847,0.50151926,-0.5365161,0.3111009,-0.28379577
P14867,-4.765366,-2.1748435,-0.4884992,1.2806286,-0.7341242,-2.361682,-2.155207,-3.1473093,-4.2665553,-5.2360144,-0.7947215,33.806496,14.248902,-0.81457233,4.9636035,-1.5720278,3.1504958,-1.4252832,-0.29019424,1.1468393,-1.316352,1.5496068,-0.4403056,0.74506587,1.0055313,0.3208196,0.29941186,2.1932395,-0.3099906,1.978374,2.5833359,0.52008176,3.570834,-1.1374513,3.03349,5.395689,6.04821,2.029021,-1.2477384,0.15659654,-0.18843035,0.6410685,1.2027619,0.9490006,-0.1316657,0.4574961,-0.8766036,2.6073925,-0.2855493,-0.10722743,0.037024282,0.8332216,0.397641,0.45469028,0.12693578,1.0272548,-1.5753725,2.29441,-4.493722,1.0051194,-2.044621,-0.12837303,-2.759063,0.5996062
P16234,-5.9930134,-1.7650867,-0.7087599,-0.021667833,-0.09484659,-0.49759036,-0.3796414,-1.0683573,-0.46909982,-1.3632022,-0.69952023,-0.8906273,-1.9473249,-0.47214693,-2.1660903,1.0467032,-2.1497104,1.1608292,0.15140006,-0.18131714,1.1632748,-2.849769,0.7321727,-2.6953435,-3.3022828,-1.3128146,4.568817,0.11607322,6.7908196,3.0109627,1.2003566,1.6344543,0.9574863,0.4270807,1.3597485,-0.0814121,-0.009246581,0.26316053,0.64373475,0.31979984,-0.065786906,0.8227795,0.68316513,0.026232392,0.021884715,-0.036891364,-0.17095105,0.23813953,-0.05096846,0.16544595,0.13727371,-0.078832984,-0.014887063,0.15114841,-0.028641071,0.033354793,-0.2127271,0.28286228,0.09858668,-0.008431743,0.08984863,0.10452676,-0.22688505,0.15372676
P17252,-5.1491685,-1.6129075,-0.6742728,0.448449,-0.104682125,-0.7253565,-0.40236565,-0.7082509,-0.72931796,-0.99379736,-0.009998086,-0.76598096,-2.171975,0.7453211,-1.8060578,0.5275728,-0.71050364,0.65962124,-0.30345872,1.3055363,0.8491586,-6.42584,1.5059471,22.570599,3.5609984,1.914285,0.5547257,0.041913852,1.5618898,1.0417347,0.73782396,0.59918725,0.72177464,0.146508,0.4159675,-0.3143634,0.31682128,-0.012454476,0.5099743,0.1663081,-0.102943614,0.01749598,0.8661571,0.13661739,-0.38830167,-0.5844775,0.42857796,0.23642312,0.7771795,0.2717107,-0.16172193,0.41328922,0.073024765,-0.46269497,0.3003318,-0.03377721,-0.5473507,-0.4492534,-0.092590466,-0.18471189,0.5732381,-0.69357437,-0.4185258,0.20734754
P17655,-5.5210752,-1.7035686,-0.59317076,0.38737634,-0.1407122,-0.5460839,-0.3681996,-0.37693524,-0.47802362,-0.48928928,-0.12223255,-0.32344458,-1.3530669,0.45070115,-0.97924095,0.3696226,0.22985142,0.3092028,0.035718534,0.68369496,-0.25006655,-0.33500656,0.15789147,-0.109152585,-0.049861044,-0.43313262,-0.24263617,0.74955416,-1.8161695,0.30967784,0.5055438,-0.54988796,0.6969651,-0.47305268,-0.6842759,-0.41949865,0.29406136,-0.35578412,-0.17204729,-0.78478384,-0.4292322,-0.9433552,0.5573918,0.07902546,-0.40506142,-0.07555748,0.1782354,-0.044554383,0.6370321,0.33805275,-0.20863932,0.03604014,-0.47603294,-0.42701015,-0.012347461,-0.21812642,-0.054156788,-0.78176767,0.04388247,-0.21968256,0.1971667,-0.6306603,-0.3306132,0.12405251
P20309,31.971737,1.9853852,33.749104,-4.0899577,42.945858,1.9386907,-11.475039,-0.070746236,-0.32850963,-1.4149046,7.9298606,-0.7182008,3.5760822,-11.026076,-8.930306,-1.0275501,0.100729644,-3.214768,4.0083814,0.31597343,-0.08990719,-0.50513506,-2.8959703,-0.18296713,0.5048985,1.3840221,0.6315731,0.6661521,0.2563213,-1.1599116,0.2754029,0.18084978,-1.230316,-1.5782213,0.31788537,-0.28453493,0.055062793,-0.21373464,-0.50042796,-0.025950342,1.0279465,0.24101599,0.5940179,0.09088312,0.073299095,-0.4758833,-0.14098606,1.6782119,-0.5292936,0.40658128,0.1817634,-0.16465834,-1.8899102,0.5153413,-1.3351977,0.13803814,-1.1949006,-1.3776677,1.6537793,0.24277979,0.45150355,1.1988319,0.53444654,-0.14576922
P20366,2.4966896,-2.4960597,-0.6415905,3.4018514,1.333439,-0.56316054,2.4895034,-0.77966154,-0.6633486,-1.243994,3.2500463,-0.15708584,-1.0407767,1.252999,-0.32209936,-5.119022,-2.7973094,6.297625,6.1906204,1.7913045,-0.96710205,0.4305557,1.9227308,-0.2010227,-3.2990916,-2.0668042,-7.203139,0.49096808,2.4123366,-1.2362832,-2.193464,-0.71423125,-1.6096077,-0.76715434,-0.05318853,1.1491612,0.82657796,0.23457906,-0.9659266,2.6476219,9.185223,-5.0125346,1.6150506,4.613851,2.3141034,1.7621574,-0.4859271,1.9782027,-5.068823,-0.5386041,2.0295599,-0.9990461,-2.2523954,0.9425059,-1.4001497,-0.6331432,2.0635695,1.3905507,-1.2054493,-1.7161181,7.1447253,-3.2248366,0.43467903,1.2953209
P20396,-5.5210752,-1.7035686,-0.59317076,0.38737634,-0.1407122,-0.5460839,-0.3681996,-0.37693524,-0.47802362,-0.48928928,-0.12223255,-0.32344458,-1.3530669,0.45070115,-0.97924095,0.3696226,0.22985142,0.3092028,0.03571853,0.68369496,-0.25006655,-0.33500656,0.15789145,-0.10915258,-0.04986104,-0.43313268,-0.24263616,0.7495543,-1.8161695,0.3096778,0.5055438,-0.549888,0.6969653,-0.47305313,-0.6842756,-0.4194998,0.29406112,-0.355785,-0.1720471,-0.78478426,-0.4292331,-0.94335616,0.55739117,0.07902623,-0.4050615,-0.07555793,0.17823614,-0.0445536,0.63703173,0.33805317,-0.20863876,0.036040425,-0.4760328,-0.42701015,-0.012347375,-0.21812633,-0.054156657,-0.7817674,0.043882955,-0.21968247,0.19716676,-0.63065976,-0.33061358,0.12405255
P21452,-4.4813895,-1.4221787,-0.51558703,1.6835418,0.23908521,-1.2517828,-0.63580847,0.056187913,-0.9467856,1.4089775,1.4276997,0.21732597,-2.5820632,2.9818974,-1.3819144,-1.2947599,5.221869,2.6083372,-3.9733303,16.672235,-12.4148655,8.402361,-6.338374,1.6185118,-3.6575985,3.4121032,-0.31556427,-4.040673,4.720326,-1.2231004,-4.319079,-0.119198084,-1.4153633,1.3134907,-0.68939674,-0.7415032,-0.13551003,0.5090351,-0.65947527,0.3235523,-0.22738299,1.1157267,-0.42419025,-0.7705119,-0.041949514,-1.2020265,0.7829588,-0.9260417,1.4371375,0.9107268,-1.0889859,-1.6776304,0.26609853,0.9793594,-1.1013523,-0.032129407,0.61282283,-0.876976,0.68581295,-0.22313577,-0.17397735,-0.093220755,-0.68794984,0.53998226
P21554,-4.722471,-1.6796823,0.33896723,1.9134912,0.5116438,-1.7959211,-1.3676082,0.79235995,-1.2177043,2.7475445,2.0086725,0.72767913,-4.9352045,6.4503617,-4.6509185,-2.3763027,36.607082,2.067882,2.7527893,-8.467902,5.4024363,-1.7332942,1.2419952,-0.3655207,-1.578219,1.1870244,0.19205372,-2.1400702,2.5408936,-2.1829307,-1.6927489,0.07050922,-1.3726226,0.25115827,0.24362636,0.20529766,-0.10006469,0.33226866,-0.082290374,0.11356808,-0.12537245,0.5013299,-0.75889236,0.32755363,0.23313724,-0.30391854,0.019275317,-0.6266496,-0.21879417,-0.5600845,0.16239326,0.19425803,0.5741519,-0.06028902,0.29404005,-0.14807548,0.29951304,0.76412225,-0.14753017,0.11466428,0.5790385,0.27624032,0.596131,-0.055479128
P21802,-5.8538566,-1.7022948,-0.66771156,-0.019833775,-0.08481313,-0.43978623,-0.33335057,-0.9242696,-0.40269077,-1.1610701,-0.59172714,-0.74645215,-1.6056744,-0.38321394,-1.7399126,0.8354006,-1.6740593,0.8714665,0.11055505,-0.1269735,0.8099879,-1.9461005,0.49311757,-1.7677832,-2.1075468,-0.8305834,2.561588,0.06223686,3.497122,1.5212257,0.56148356,0.7235129,0.38674265,0.15885653,0.5045804,-0.026254065,-0.0028965324,0.08109701,0.18545812,0.08511939,-0.016873904,0.20550491,0.15158066,0.004907972,0.0033986224,-0.0052027297,-0.020192426,0.023813814,-0.004613872,0.013423461,0.009617606,-0.005503831,-0.0003583809,0.007455168,-0.0015132338,0.0011119286,-0.0035749588,0.00047519992,-0.0007853734,0.00030822607,-0.0020013421,-0.004619978,0.009465375,-0.009109294
P21917,38.98747,-4.3516912,-2.1346169,47.064655,-4.4038744,1.3317827,-5.8814178,-0.1914642,1.0764606,-0.50262195,-15.620369,-0.43064135,-1.4001725,-3.914899,-9.534177,-16.191938,-1.3203304,-3.5462317,-4.3432565,-0.8814314,0.62893635,-0.43246445,-2.4276843,1.7362407,-5.126652,-13.372427,-13.014366,-8.160962,0.059430156,4.7797666,7.2466564,3.898854,-4.1293583,0.82268703,-1.9143687,-1.5773828,1.1435993,-0.30796432,-0.47147864,-1.8373007,-1.0429516,1.9139441,-0.62459373,-2.4914758,-0.2867074,-0.63719106,-1.6663854,0.09964047,-0.43424284,0.06323185,0.071770065,-0.50777155,0.5706752,0.27389556,0.45127875,0.006401741,0.2991925,1.0734739,0.21875754,0.34281242,-0.48894566,0.61675674,-0.30828854,0.2983573
P23975,24.058208,2.2388954,41.80803,-28.686281,-30.206242,-0.18119301,0.9906292,-0.4897048,-0.5577429,0.56310475,-0.102734156,-0.2277484,1.00844,-4.279368,-5.0511217,-3.0024931,1.5248185,-3.9976077,-7.8156815,-0.7633221,0.53971636,-1.0608304,-7.165162,0.63525236,0.3151433,-3.2128425,0.14476171,-4.3873696,-1.7654064,0.48254696,6.1183715,2.1887794,-0.5883673,2.5938447,-0.67460936,1.369714,-0.7587688,-1.0301095,0.65867966,1.8285787,-5.172374,3.0999067,-5.6721573,6.039771,2.7895365,2.2523837,2.24538,3.464253,0.30872846,0.50727427,-0.28857264,0.8403602,-2.272329,-0.2770008,-1.52174,0.6482767,-1.9955236,-2.8059564,-0.3203229,-0.9988086,1.9394323,-1.7556946,0.1634923,0.43467826
P24530,-5.1794496,-1.6732298,-0.4405583,0.87562,0.2389724,-0.788308,-0.5713705,0.10468985,-0.3578007,0.16498531,0.4414623,0.035325896,-1.4340411,1.1572981,-0.8200129,0.008685106,1.794995,0.21656959,-0.12601592,1.7031385,-1.0696148,0.22216475,-0.4869184,-0.05828334,0.6282418,-0.7608866,0.0041670133,2.081281,-2.7561686,1.9621235,1.6890802,-0.2500171,1.4674239,-0.9498119,-0.20439659,-0.34833616,0.007811812,-0.5282472,0.032445915,-0.6696397,-0.6338017,-0.9831161,1.6299938,-0.3119097,-0.67710006,-0.14206392,0.019104205,0.48924115,0.8564779,0.6874569,-0.55390394,-0.3955424,-0.24488781,-0.030756893,0.17882882,-0.2622906,-0.1269491,-0.047284637,-0.2699252,-0.19062684,0.7029271,-0.5596918,-0.20553803,-0.022951206
P24557,-5.4864287,-1.6675799,-0.35514447,0.4137982,-0.10580312,-0.39448622,-0.33593467,-0.76061934,-0.32258332,-0.9341057,-0.94853723,-0.5321724,-1.5222806,0.60785323,-0.6792421,0.25180662,-1.1924057,0.457039,0.6450743,0.24120103,0.1814493,-0.7677755,0.83480954,-1.0298089,1.7176381,0.3645222,1.0099256,-0.50404453,-2.0038018,0.5525577,-1.5901593,-1.2833325,0.23058705,-1.2498069,-1.4945049,-0.14039831,0.017548617,-2.4545608,-0.7848196,1.4872894,1.2318621,2.4954953,-2.0301194,1.7126044,1.3481305,-1.5020716,-2.9214008,-0.5505328,0.25387034,0.24518485,0.18222767,-0.087419435,0.41382736,0.049517263,0.031999443,0.029377626,-0.021498911,0.059664857,0.06493623,-0.042077057,0.048031572,-0.04809291,-0.009266924,-0.053501256
P24941,-5.709221,-1.636618,-0.6242701,-0.017864717,-0.07390675,-0.3765714,-0.28255224,-0.7649059,-0.32893595,-0.9356338,-0.47106227,-0.5842508,-1.2178745,-0.2813875,-1.2491256,0.59119344,-1.11668,0.5251886,0.060878996,-0.05921005,0.36792532,-0.80188555,0.18783705,-0.56354207,-0.5294462,-0.19006158,-0.32660013,-0.017647887,-1.5331299,-0.78553617,-0.4857874,-0.83423835,-0.66311055,-0.36936906,-1.1832128,0.09723692,0.011541455,-0.34311554,-0.95382684,-0.5459894,0.12039845,-1.5656432,-1.5817274,-0.08299831,-0.08073686,0.16542351,1.1518297,-2.2294295,0.62219346,-2.6942065,-3.7026153,4.691137,-1.3821834,7.031989,-0.592954,0.45372713,-2.2958338,2.2422063,0.61353546,-0.04257969,0.45240322,0.46729454,-0.9638636,0.558664
P25021,2.0475287,0.4046196,6.8979154,-0.9619412,4.35242,-1.494494,5.7420826,-0.101754166,-0.11205983,0.2778502,-2.8553424,0.09158219,-5.166153,14.254742,10.118195,0.7293783,-0.03464043,-11.739363,2.8194184,0.42001775,-0.6644415,0.8474748,0.26261923,0.09148413,2.8234863,0.4523935,2.181056,-2.9132967,-3.3740485,8.764847,-1.6574346,0.025875963,1.8561776,-0.5341059,-4.791363,-3.173641,4.2545485,-5.8593755,0.949969,4.5114813,5.301365,9.599169,0.9410149,-3.8707874,-1.7675476,0.70166916,7.0807257,1.9387718,-3.0599415,-2.5624132,0.13817888,0.67911494,-0.985378,-0.0796344,0.3416747,0.21333346,0.4717085,0.65449226,-0.04764689,0.29442865,0.19315088,0.50333095,1.7047266,-0.43268955
P25100,8.695489,-2.4326954,-3.5130246,15.775886,-11.257292,-0.18694057,-0.22952738,-1.6969812,1.8247441,-2.6211247,9.533197,-2.2346373,1.1722741,-4.6577578,3.9060667,29.700853,0.40626,-2.698243,1.7281904,-2.1635418,2.3453112,-4.100985,-11.36383,-1.9254533,1.0532091,6.3997335,-2.3049438,-10.62221,-1.5450424,1.6721668,1.0243214,-0.18564695,-1.1709409,-7.4207196,2.5003767,0.7692856,-2.369558,-0.5626171,-2.8122506,-2.9915266,1.9855692,2.0282905,2.6318982,-0.87328285,2.5616236,8.291701,-0.8247034,-1.3117357,1.0774294,1.4498123,-0.32703352,-1.3232803,-1.2952874,0.3642224,-0.6643842,-0.7356312,1.2657878,0.29467663,-0.06491169,0.057927564,-0.6786681,-0.09628597,-1.1080983,0.5119123
P25103,-4.137512,-1.3029615,-0.41169313,1.426552,-0.27912322,-1.2604959,-1.2530277,-0.07330504,-1.2171896,1.9776454,1.0313306,0.5847768,-2.351719,2.9965131,-1.2360498,-1.3938147,4.938947,1.8864521,-3.9472008,15.536035,-11.564478,7.853842,-5.129979,1.3683437,-3.219066,3.6247284,0.1417722,-2.8777146,3.2912352,-1.5787456,-2.0205927,-0.018746374,-0.6843416,0.63409966,0.3400585,0.91927475,0.09274889,0.22582051,0.1608404,0.2927723,0.87156576,-0.94665897,-0.68595815,1.1806173,0.82688594,2.8429787,-1.3587682,1.4586879,-3.7103703,-2.6610541,2.1266072,3.4069152,-1.9742335,-4.1597695,5.0731835,-1.2992935,-3.3486674,2.650921,1.9999665,0.26656863,-0.62207395,1.5583876,-1.6950167,1.1410698
P25105,-5.043569,-1.7461699,-0.19555143,1.3223295,0.19432889,-0.87845725,-0.69157106,-0.040734608,-0.495026,-0.098374836,-0.12966762,1.2029428,-1.3062868,1.9656825,-0.15951432,-0.30924514,1.67249,0.15717039,0.4625673,1.973539,-1.2057705,0.16347952,0.17270371,-0.6001091,2.8474455,-0.24319817,1.306119,1.5850848,-3.6361191,3.1665018,0.39790276,-0.9830511,2.0985358,-1.9962276,-1.1422824,-1.1348915,-0.7094032,-3.2403512,0.09914501,1.2171191,0.57092035,2.2105823,0.40855446,1.6400673,0.7242942,-1.7850664,-3.4440129,0.47286233,1.125693,1.2320522,-0.22419442,-0.5834803,0.20705141,0.2839039,0.20475593,-0.13585122,-0.6370656,0.667769,-0.43082237,-0.20421696,0.89683825,-0.53473014,-0.88519573,0.22288378
P25929,-4.5452824,-2.3974364,-0.0392425,-0.39430144,-1.3532815,-5.0325456,-1.681734,43.771492,4.426737,1.9541323,0.17321087,0.9791475,4.2001495,-1.0567425,2.166382,-0.62168795,-0.064520314,-0.08764556,-0.01658146,-0.10930344,-0.14729089,0.46218303,-0.16626225,0.33218232,0.4327783,-0.03380953,0.4766242,0.72529906,-0.24809632,1.0787458,0.73631173,0.017667247,2.2617455,-0.7350919,1.1315864,-2.1578958,-0.42603794,1.9867463,-0.09471066,0.28149372,-1.5528107,-1.081476,1.2743702,-4.9412007,12.249852,-3.0371995,1.6142678,0.06297534,-1.2521414,-0.526741,0.5372532,0.5340445,0.16619368,0.023643931,-0.112567246,0.22600996,-0.41995245,1.0427502,1.6445495,1.2477834,-1.1061965,-3.4273987,0.592169,0.3196078
P28221,47.62512,-1.5513449,-20.373285,-5.531231,-0.0559446,-2.8025963,30.18573,1.187091,0.6965874,2.8820271,4.4422917,1.117795,3.183266,-5.789446,-3.0877318,4.053647,4.5724688,-4.7104316,11.227313,4.190325,-3.648543,3.5065365,-0.47061068,2.9077556,-0.18878841,-10.5137205,6.22676,-0.36948854,-2.921058,2.2989514,1.270953,0.8693552,-1.650313,-2.0531783,1.596393,2.2239604,-3.1731665,-0.30602217,-0.5533528,-1.7355064,-3.3078327,1.280605,1.1950246,2.300995,-1.8102732,-2.7910125,1.7991446,-7.1560397,-2.3875232,-0.69907737,5.3806543,3.3496833,-0.3402349,-0.9574131,-2.0138776,0.57944113,1.5337065,0.13326778,-0.7934548,-0.50867116,0.16852283,-1.0943785,-0.6025473,0.89617705
P28222,41.0034,-3.102232,-20.223213,-7.1446967,-2.4079812,-2.4464967,29.839262,0.24877515,0.569376,0.5772633,4.1949673,0.5467556,2.5092852,-4.752285,-2.2513583,1.2572696,-0.3713041,-5.0713634,17.076653,2.2910454,-2.147298,3.0634902,5.977588,1.9962101,-2.0145786,-7.4089937,6.810875,-3.404962,-0.61793995,-5.8818784,0.074757,-0.13815802,-3.027275,-0.26286662,-0.8069002,-1.4180642,1.8176785,0.9356133,-0.7882293,0.15874244,1.2253927,-1.3653133,-2.6654043,-3.3834333,0.8609808,1.4835259,-2.6034493,7.797717,1.5613502,0.64917225,-4.940668,-2.959998,0.13251673,0.99525535,1.8105559,-0.37147102,-1.644968,-0.46794856,0.4398891,0.40707487,-0.20875621,0.7999565,0.4765484,-0.84251416
P28223,-5.382182,-1.6641741,-1.0153493,-0.3756124,-0.0028625631,-0.3113456,-0.8113685,-0.73208666,-0.37874055,-0.9085927,-0.5446362,-0.5693837,-1.2000558,-0.15821606,-1.0924174,0.61464596,-1.0237601,0.41992673,-0.5886332,-0.15638304,0.3900032,-0.7087007,0.28612444,-0.44882432,-0.5413984,-0.610655,-0.30292165,-0.34743172,-1.1326398,-0.9983307,-0.7404319,-1.0360125,0.5117428,-0.3673933,-0.5772302,0.04847429,-0.028503768,-0.29728377,-0.41976652,-0.113730825,0.31203714,-0.6673272,-0.4086582,-0.09167158,-0.056993976,0.2739951,0.23328611,-0.264651,0.2529652,-0.19233423,-0.30382514,0.24019052,-0.17817049,-0.3121528,-0.06461812,-0.11139731,0.4946103,-0.5005571,-0.18401329,-0.0440012,0.020785052,-0.26002148,0.4896088,-0.31872457
P28335,70.95095,-8.828416,-33.154953,-17.97177,-2.459074,3.5456848,-38.877167,0.32994965,-3.3280802,-0.83019936,1.3073409,-0.25462595,-1.4537079,4.0048695,2.446833,0.9812853,1.4460114,5.9499097,-2.0114827,2.3767078,-2.0278125,2.7011228,7.008699,1.1361368,-1.3989347,-6.1703596,3.2594926,10.280453,0.16178763,-7.5923853,5.269546,1.7218566,-1.793355,0.7178717,-3.1499424,-0.70398384,-0.60797334,-2.110302,-1.8956928,-0.8283677,1.5172564,4.958775,0.79048413,-0.629707,1.5390366,4.7951508,0.7398882,-2.0414476,0.51187634,-0.39477882,-0.62285686,-0.7259454,-0.51963556,-0.21426013,0.20432884,-0.44263908,1.0069797,-0.025625812,-0.012967293,-0.008185502,-0.20415477,-0.22118223,-0.5112869,0.70494443
P28566,22.55257,-3.022667,-17.747978,-8.133539,3.2859743,-1.4261105,14.818674,-0.023650263,-0.6107037,-0.115472615,0.6736117,0.4131028,0.58897054,-1.4129053,-2.6342034,-8.171544,-2.802996,9.42175,11.086775,-0.08118395,0.9477594,-2.4880826,-1.2427366,-2.4794197,0.24802957,12.800243,-8.858559,-2.1972487,0.9599247,0.9091138,6.6817822,1.5914731,5.1513214,8.441607,-2.7223482,-0.38284993,1.9464905,-0.7247276,2.7561872,5.8818045,3.2588844,-0.8942892,-0.8764873,-0.7081894,1.3791013,3.2411613,0.7290993,-2.3939712,5.652477,3.7947052,0.9541022,3.7907233,0.16828474,-1.8271809,-1.3754213,-0.01642289,0.5519429,0.83134323,-0.06358776,-0.13226847,-1.2713399,0.21825282,-0.6076622,-0.24974462
P29274,-5.3072224,-1.7054822,0.09924468,1.9293307,-0.56488854,-3.186353,-3.4965777,-3.0354252,-10.204637,38.56096,0.2824819,0.30283368,6.9372697,-1.8539095,3.3782012,-0.1435322,-1.1496152,-0.7945748,0.62794405,-0.44541728,0.06725374,0.38040096,0.106502056,0.3231286,0.43786925,0.09091782,0.07638895,0.42624122,0.14944144,0.7385257,0.73098725,0.3009701,0.5372882,0.06458867,0.30651715,-0.1243611,0.12187274,0.12883754,-0.9638568,1.5467618,-1.4501477,0.051996417,2.0896506,0.31703645,-0.14815742,0.45066512,-0.5674268,0.674204,-0.23084351,0.14893636,0.33495748,-0.11586115,-0.20425868,0.31692684,-0.77166975,-4.130745,-2.033657,1.1663322,-2.2428768,0.47676638,-0.050433148,0.076925375,0.43455794,-0.14654617
P29275,-6.0409975,-1.7964064,-0.6434169,0.28816453,-0.20988756,-1.2453095,-1.2935514,-1.9510132,-3.9970539,13.483121,-0.48564848,-0.6765901,1.9866738,-1.6296743,0.3458369,0.7209248,-2.7079425,0.19289298,0.8613901,-1.5990572,1.3752056,-1.205401,0.48615354,-0.51086,-0.6470673,-0.17677747,-0.9191921,-1.068291,0.09445895,-1.3419516,-2.82546,-1.1131378,-2.4169083,1.1168171,-3.2080228,-2.2547197,0.7756595,0.8041339,-9.650468,8.724077,-7.0137715,-0.72861785,7.081057,0.89424586,-0.66850084,1.7685239,-1.0485324,1.609155,-0.3411641,-0.40173954,0.21187992,1.4315077,1.065064,-0.16025425,1.8131453,8.29038,2.4579265,-0.2678364,2.042197,-0.35757217,0.34705845,0.15774885,-0.57858,0.35250977
P29323,-5.9201775,-1.7322247,-0.68728054,-0.020708177,-0.0895982,-0.4673565,-0.35543033,-0.99300474,-0.43437237,-1.2575058,-0.6431578,-0.8152458,-1.7687167,-0.42565975,-1.9433333,0.9362635,-1.9011507,1.0096589,0.13006657,-0.15294121,0.9788136,-2.3780077,0.60738665,-2.2112598,-2.6788957,-1.0612152,3.522561,0.088020295,5.075189,2.2351055,0.8678412,1.1605527,0.66079426,0.2877462,0.9155181,-0.052792493,-0.0059537212,0.16873239,0.4061745,0.19822527,-0.04045398,0.5031732,0.4081835,0.015213688,0.012353664,-0.020566858,-0.093322925,0.12787102,-0.0271287,0.087315045,0.07172205,-0.041150056,-0.0074621574,0.0774212,-0.014701685,0.016821623,-0.1057055,0.13858527,0.047819324,-0.003983363,0.04296797,0.04910831,-0.1065986,0.071060084
P29371,-4.3522515,-1.252678,-0.41411623,1.600672,-0.025617806,-1.2556329,-0.805672,0.0013483515,-1.0482514,1.7001604,1.1946923,0.40200552,-2.4039068,2.8668315,-1.3487256,-1.260462,5.075718,2.0577872,-3.9889145,15.862693,-11.820754,8.03739,-5.5654764,1.4649192,-3.3671117,3.6176822,-0.21502848,-3.2349393,4.214509,-1.7549249,-2.6835332,0.11443384,-0.9719111,0.44745034,0.22628371,-0.04567042,-0.43563372,0.19042712,-0.2255288,0.75442725,-0.52019364,1.6085757,-0.5122404,-1.0247211,-0.23602252,-1.3520089,0.84914136,-0.7455628,2.4221709,1.4115838,-1.5576665,-2.0162628,2.0548842,3.152056,-3.6632688,1.3846914,2.4878836,-1.8571745,-2.2335446,0.21470082,-0.49189946,-0.82015985,2.033893,-1.558847
P29597,-5.8514905,-1.7012258,-0.6670126,-0.019802563,-0.0846422,-0.43880156,-0.33256173,-0.92181504,-0.40155917,-1.157626,-0.5898906,-0.74399555,-1.5998516,-0.38169807,-1.7326472,0.8317985,-1.6659498,0.86653125,0.109858476,-0.12604706,0.8039588,-1.9306763,0.48903662,-1.751945,-2.087143,-0.82234716,2.5272706,0.061316416,3.440765,1.4957314,0.5505435,0.70790553,0.37695548,0.15425397,0.489905,-0.025306143,-0.0027874424,0.07796701,0.17757592,0.081080005,-0.016031984,0.19487442,0.14241683,0.0045397156,0.0030788435,-0.004653924,-0.017580688,0.020097839,-0.0038091682,0.0107845375,0.0073996885,-0.004230977,-0.000104879175,0.004956617,-0.0010421642,0.0005510799,7.234285e-05,-0.004457188,-0.0025203933,0.00046149222,-0.0036070223,-0.00653914,0.013609615,-0.01197205
P30411,-5.1626472,-1.5876024,-0.8561522,0.5755791,-0.18965903,-0.6085168,-0.16495748,-0.4070835,-0.5432504,-0.49448782,0.14385265,-0.3357642,-1.5018523,0.68536925,-0.9884872,0.05876293,0.2562495,0.67685705,-0.33946398,1.4319943,-0.77959985,-0.015981855,-0.037211336,-0.13063383,-0.31475514,-0.019783048,-0.37597772,0.33756712,-1.7692968,0.010568038,0.26382342,-0.7326837,0.68591064,-0.38467002,-1.2249591,-0.9936478,0.8551678,-0.40536517,-0.1593599,-1.6216143,-1.2025983,-1.3759979,0.1343931,-0.17246383,-0.7232934,0.050430764,-0.2592283,0.08033895,0.38423058,0.13877459,0.536303,1.5104762,-1.3728787,-2.2090418,1.5655081,-0.80541897,-1.1853343,-0.95764536,0.8741464,-0.11243066,-0.6899376,-0.29390794,-0.07940427,-1.0617244
P30542,-4.930669,-1.5991508,0.5235254,1.5969093,-0.58059156,-2.6180503,-2.9500499,-2.2291896,-7.8115034,29.148148,0.28568515,0.40056828,4.827349,-1.1064183,1.9568373,-0.48659667,0.7214415,-0.80657023,0.28318447,0.560642,-0.6214442,0.69092983,-0.35180122,0.302735,0.6753152,0.36672872,0.6868485,1.6195364,-1.0104114,1.3804294,2.7707443,0.5488739,2.7478788,-1.696489,2.8762984,2.268235,-0.59457505,-1.0344001,8.088996,-7.3031907,5.7013845,-0.6292614,-5.093571,-0.70480525,0.23426552,0.5383436,0.0075342716,0.73743343,0.003011212,-0.2816383,-0.45602122,0.7245728,0.79725075,-0.24804084,1.7619926,8.587401,3.0853684,-0.92509854,2.612253,-0.49909765,0.18877259,0.03227123,-0.67152405,0.3065845
P30556,-5.1794496,-1.6732298,-0.4405583,0.87562,0.2389724,-0.788308,-0.5713705,0.10468985,-0.3578007,0.16498531,0.4414623,0.035325896,-1.4340411,1.1572981,-0.8200129,0.008685106,1.794995,0.21656959,-0.12601592,1.7031385,-1.0696148,0.22216475,-0.4869184,-0.05828334,0.6282418,-0.7608866,0.0041670133,2.081281,-2.7561686,1.9621235,1.6890802,-0.2500171,1.4674239,-0.9498119,-0.20439659,-0.34833622,0.007811782,-0.52824724,0.03244593,-0.6696396,-0.6338017,-0.98311627,1.6299937,-0.31190985,-0.6771003,-0.1420638,0.01910396,0.48924148,0.85647774,0.68745697,-0.553904,-0.39554188,-0.24488802,-0.030757157,0.17882916,-0.26229066,-0.12694918,-0.047284592,-0.26992533,-0.19062708,0.7029269,-0.55969137,-0.20553851,-0.022951175
P30926,-5.6674886,-1.6162915,-0.5841366,-0.043329667,-0.051403265,-0.37186038,-0.2052557,-0.742922,-0.31521258,-0.88445884,-0.50299436,-0.5515558,-1.187717,-0.2045001,-1.1277472,0.6510213,-1.0372026,0.07977468,-0.059362724,0.0050895954,0.26476562,-0.5783443,0.7430487,-0.5363956,-0.5613899,0.12645777,-0.76487684,0.13322608,-0.86612344,-0.95314485,0.083777145,-0.43420225,-0.4747101,-0.7673102,-0.3408067,0.34733343,-0.44583908,-0.24403824,-0.60495245,-0.1591957,-0.1601629,-0.42504904,-0.77751523,0.13250273,0.16769816,0.025099427,-0.018781612,-0.17459925,-0.07555249,-0.17255186,0.13544473,0.63259745,0.27620363,-0.12701137,-0.032728985,0.22709373,0.43475014,0.37716937,-1.0686013,0.31424832,-0.13818404,-0.04540575,1.9182163,-2.2625644
P30939,17.1815,-4.3096523,-18.992804,-11.188437,2.7714229,-1.1505032,11.971857,0.14943762,-0.42147058,0.41632408,-4.0201206,0.6018757,-0.3690781,-1.7078898,-3.4337661,-7.0262094,-2.3158054,10.314989,6.2016993,-0.6487229,1.5567497,-3.7015707,-5.7326574,-3.4244502,1.5359708,15.110211,-7.2420115,0.74783415,1.3855451,-0.4961179,3.1992702,-0.0073202495,6.134024,0.8270037,-1.7909873,-0.7208002,-1.7117614,-0.7164644,-1.2162896,-6.5520177,-5.815862,4.875686,1.4849888,1.0772904,-0.98638153,-1.0657266,-0.9081118,0.3504496,-5.9092054,-4.8972282,-1.154806,-4.728802,-0.2494221,2.1777737,1.3385701,0.052025504,-0.6542877,-1.2612529,0.45986906,0.38014457,0.5364327,0.45039767,0.695437,0.060261376
P30990,-5.1794496,-1.6732298,-0.4405583,0.87562,0.2389724,-0.788308,-0.5713705,0.10468985,-0.3578007,0.16498531,0.4414623,0.035325896,-1.4340411,1.1572981,-0.8200129,0.008685106,1.794995,0.21656959,-0.12601592,1.7031385,-1.0696148,0.22216475,-0.4869184,-0.05828334,0.6282418,-0.7608866,0.0041670133,2.081281,-2.7561686,1.9621235,1.6890802,-0.2500171,1.4674239,-0.9498119,-0.20439659,-0.34833622,0.0078117833,-0.52824724,0.03244593,-0.6696396,-0.6338017,-0.98311627,1.6299937,-0.31190985,-0.6771003,-0.14206377,0.019103969,0.48924145,0.8564778,0.6874571,-0.553904,-0.39554188,-0.244888,-0.030757137,0.17882912,-0.26229057,-0.12694916,-0.047284596,-0.26992542,-0.19062705,0.7029268,-0.55969137,-0.2055385,-0.02295115
P31644,-6.3359103,-1.9882628,-0.7671197,0.19905032,-0.2540566,-1.3944482,-1.311556,-2.98098,-2.8214874,-5.236407,-1.806046,23.080202,9.775669,-1.6998024,3.0101418,-0.02582382,-0.34613904,-0.38623405,-0.036034755,-1.2764446,0.8106434,-0.30820575,-0.0635725,0.052513767,-0.31794477,-0.10470409,-0.049686223,-1.467481,1.0244368,-1.0085891,-1.6368024,-0.050618835,-2.582968,1.0800283,-2.2836325,-6.917774,-8.545841,-3.0981858,3.5389812,0.44947228,-0.017503988,-1.3341032,0.54214597,0.114666834,-0.108527884,0.086515576,0.33991212,-0.3855931,-0.0006283497,-0.15236309,-0.07639827,-0.13893889,-0.10002892,-0.17648703,-0.016779179,-0.40889314,0.61867595,-0.97109103,1.9016656,-0.46202418,1.0648985,0.07011896,1.5868313,-0.5688794
P31645,25.6114,-0.6428458,36.520283,-24.891703,-27.437193,0.15088542,0.5281544,-0.011211375,-0.4824024,-1.3445626,1.7600955,0.07267264,1.149102,-5.354285,-5.913186,-6.536956,-0.8063363,5.630944,10.039372,0.4766252,-0.03414022,-0.38681033,0.41926527,-0.016139062,-2.11621,-5.778634,-11.759187,8.106312,4.5049615,4.949939,-12.105298,-3.9924927,1.2447373,-6.336403,2.7141964,-1.5561271,0.8386945,-0.8237973,0.7875427,-0.9285164,0.20956556,0.8182017,1.301975,-3.568905,-1.3216269,1.4459375,0.18429033,-1.583011,1.3506056,0.63363874,-0.10992482,-0.2789552,1.7865382,-0.19211432,1.3032293,-0.5741085,0.8899893,1.7590102,0.19673933,0.5976853,-1.3951712,1.2134331,-0.35689086,0.0062875235
P32239,-4.251212,-1.3027332,-0.44920847,1.3331708,0.22551171,-0.8831095,-0.39922526,0.06584854,-0.5581404,0.79729015,0.89169365,0.05944333,-1.4401354,1.4954815,-0.68187296,-0.4857733,2.235137,0.9110765,-1.1276419,2.637331,-1.7971352,0.7960278,-0.84214795,0.071011506,0.3001808,-0.51874083,0.29906034,1.3657945,-2.431736,1.4700025,1.9437664,-0.0317201,1.2286392,-0.77632046,-0.44331434,-0.77537984,0.27648896,-0.5243886,0.38253826,-1.619116,-1.4702113,-0.66563106,1.4401273,-0.28111467,-1.1573385,-1.1801755,-0.08373653,-0.37418666,1.0613889,0.849126,0.32143986,0.5069,-0.43485704,-0.49379626,0.1799501,-0.27801675,-0.44138414,-0.010813898,0.03240847,-0.18358089,1.0602385,-0.39600936,0.08649129,-0.27806616
P32247,-5.8108377,-1.6823338,-0.6539682,-0.019178845,-0.081032,-0.41740826,-0.31515348,-0.8656164,-0.37515408,-1.0756668,-0.5454261,-0.68311596,-1.449455,-0.34091613,-1.5318258,0.73053515,-1.4224623,0.70257586,0.08479425,-0.08819771,0.5534704,-1.2489221,0.30028394,-0.9502523,-0.9480689,-0.34736782,-0.86772275,-0.057670623,-6.417955,-3.8177772,-7.688431,17.202631,2.611919,0.79896986,2.5238023,-0.10906242,-0.011863566,0.3286785,0.7357766,0.33536407,-0.066526145,0.8134717,0.6155188,0.021181794,0.016248355,-0.026271306,-0.11365784,0.1505096,-0.03134872,0.09915796,0.07978094,-0.045611657,-0.007649455,0.082631186,-0.015712261,0.017376717,-0.10587498,0.13459943,0.045451406,-0.0035726847,0.03959444,0.04316874,-0.094149955,0.060229316
P32297,-0.41351423,0.06170554,5.3259654,-2.5543218,2.80223,-1.1121358,6.6349125,-0.60638773,-0.005305296,-0.1622075,-3.200009,-0.30282235,-2.832309,3.7878108,2.0758429,4.873371,0.43800938,-12.605175,-2.8177154,1.1819469,-1.2272345,2.489449,12.59432,-0.73646307,-1.4661565,4.0123224,-6.235639,1.5402079,2.0402715,-0.59917796,1.9661279,0.59623796,0.775964,-1.2772357,0.40097988,-0.8424467,-0.42581558,0.06818564,-0.11170946,-0.5796388,-1.1202738,-0.47831085,1.1937392,-0.13938081,-0.65026987,-1.2828805,0.7211323,-0.6533439,1.47155,1.3278385,-0.571983,-1.4440345,-1.5644807,-0.46277192,-0.15840963,-1.1151502,-0.49976823,-1.7690703,2.841686,-0.8703517,0.6683273,-0.5053605,-3.5030375,3.385443
P32745,-6.9621205,-1.8894784,-1.1923676,-0.088508986,-0.77921253,55.689835,4.0090055,3.9111052,1.2160274,2.8020422,1.2419411,1.210577,1.9257983,0.34054783,1.3818411,-0.66516477,0.94745225,-0.2601209,-0.016337762,0.03830956,-0.15938114,0.2986964,-0.112998255,0.17997502,0.16018528,0.06383909,0.07355863,-0.003737935,0.20804638,0.09007117,0.1271292,0.09472578,0.05678823,-0.043647528,0.16672094,0.01618259,-0.009478286,-0.0055213165,0.09344017,0.14140835,-0.02999086,0.03838305,0.014467811,-0.04104313,-0.022130823,-0.0029879713,-0.009271799,-0.0026499731,-0.016560715,-0.020835487,0.0076505886,-0.03528639,0.0026455526,0.01915517,0.014188108,-0.008992541,-0.009852975,0.007594442,0.015206833,-0.0074404147,0.010723763,-0.0030787014,-0.022474673,0.0134403845
P34903,-6.4611325,-2.0570407,-0.8032191,0.24504988,-0.2975457,-1.5954642,-1.5087419,-3.4010832,-3.3041074,-6.0414057,-2.0409646,27.61255,11.877875,-1.9850225,3.7894104,-0.14638145,-0.13792917,-0.600589,-0.079383634,-1.4226187,0.82947636,-0.17305131,-0.15240268,0.18229331,-0.25844404,-0.08289857,-0.03173911,-1.4088942,1.3460473,-0.91607106,-1.4294225,0.102333136,-2.1064508,0.9846361,-1.6684455,-4.9455094,-5.9014783,-2.0183842,2.3562295,0.30870116,0.023219565,-0.6143158,0.2983339,-0.112744205,-0.044145975,0.0040597245,0.2995311,-0.41891065,-0.030472685,0.008611574,0.036000825,-0.18129955,-0.049963914,-0.061744127,-0.05340389,-0.16441685,0.3107205,-0.47758925,1.1472434,-0.23631425,0.53537536,-0.009971117,0.6491202,-0.06641171
P34969,41.322533,0.13407075,-9.004374,-12.10763,13.855918,-1.8439848,23.882874,1.18069,2.2968507,3.7834504,-10.002581,1.3696986,-0.019275354,2.8903985,3.150101,-0.56714994,1.7414752,8.450088,-20.5372,-3.1162665,2.4987614,-3.0117116,-8.151483,-1.4885932,3.657709,6.929133,0.29889706,9.417746,0.61688,6.5648417,-0.22557856,4.1827283,-13.904302,-4.659461,0.72421455,-0.32909656,1.0167253,0.46797624,-1.0540572,0.25801072,1.6756417,-1.0286324,-0.7655359,0.23202825,0.5725602,-0.56564415,0.70205355,1.1686589,1.3974808,1.0762508,-0.70080125,7.322899e-05,0.9133222,-0.3894503,0.8620406,-0.26380318,0.13202193,1.1662972,0.26957473,0.11916543,0.1398062,0.30507553,-0.17661573,0.20878266
P34972,-4.895154,-1.7645766,0.32962978,1.6140107,0.5057088,-1.7123777,-0.78630066,0.7945143,-1.0876414,1.9968113,1.470121,0.6698852,-4.79335,6.028527,-4.299597,-1.9098694,33.053486,1.0606837,2.9739544,-7.701912,4.9640207,-1.6978983,1.9573925,-0.28019983,-1.241723,1.1582751,-0.5468472,-1.6714061,1.6865841,-1.1757917,-1.0455449,-0.037651304,-0.3564224,0.5945862,-0.2788938,-0.031758796,0.1933474,0.09530536,-0.23993438,0.4569227,0.28275785,-0.07536666,-0.12034813,-0.21239877,0.11566585,0.5027014,-0.09235183,0.6158301,-0.08345987,0.34008196,-0.07430205,-0.1678251,-0.5004563,0.10595226,-0.36633024,0.047338825,-0.30978763,-0.7317711,0.11765962,-0.055961054,-0.76983225,-0.17987093,-0.5576721,0.04012649
P34998,-5.122677,-1.3749208,-0.3659878,0.25668857,-0.038620614,-0.4072996,-0.31240293,-0.75408554,-0.46262148,-0.26245826,-0.2653199,-0.5259572,-1.053572,-0.140462,-1.063491,0.3709724,-0.6026892,0.8455644,-0.6151074,0.346697,-0.017779475,-0.37466207,-0.061864506,-0.34268862,-0.5993949,-0.2803441,0.13810815,-0.38045877,-0.9777314,-0.8950985,0.042492237,-0.29361433,-0.7385151,-0.17880562,-0.6187518,0.21064563,-0.23125334,-0.18996523,-0.28858358,-0.5427702,-0.010775942,-0.3607333,-0.691425,0.33692858,-0.18484494,-0.77430505,0.46263975,-1.2759784,0.062242404,-0.4479181,0.24987951,0.5472971,0.06232446,-0.44200054,0.04575073,-0.08756426,0.37355286,-0.371037,0.03365902,-0.020805588,0.16537455,-0.10352638,0.5344184,-0.14889717
P35346,-6.9429,-1.8844203,-1.183807,-0.08748947,-0.7687231,54.859913,3.9457393,3.8424208,1.193422,2.7474186,1.2168798,1.1845051,1.8803878,0.33167762,1.3443356,-0.6470887,0.91824394,-0.24965207,-0.015393953,0.036874548,-0.15221275,0.28404492,-0.10851497,0.17021824,0.15114844,0.060417,0.06847468,-0.0037684883,0.18827465,0.08049573,0.11854176,0.08461421,0.049548462,-0.04418088,0.15090357,0.015910443,-0.008920618,-0.0072848173,0.08270095,0.13004936,-0.027609704,0.028188286,0.006199593,-0.038251843,-0.020660829,-0.0024684197,-0.0067416267,-0.006740375,-0.01422895,-0.0208001,0.0046157395,-0.029903525,0.0050939335,0.012255785,0.013587498,-0.007981265,-0.0037752297,0.0022758492,0.007348651,-0.006685362,0.004383777,0.0025284388,-0.019283153,0.007821691
P35348,50.764404,0.104742974,22.129383,16.113382,-7.2022038,0.44965574,-1.537478,-0.10781673,2.3839674,-1.0613703,13.670012,-0.85777384,2.3946152,0.8571668,12.677083,33.487125,2.5229497,14.714599,-0.9213495,0.7384135,-0.2662814,-0.04158598,1.4328887,0.268849,-1.5917312,-1.6146477,-5.5971913,3.193914,1.884445,-0.5815246,2.5716877,1.1515383,1.342526,5.776703,-2.4954975,-1.5655061,2.7142355,0.25061452,2.2076128,1.7589744,-0.7339311,-1.238303,-1.5390449,-1.0606241,-2.4235587,-6.9058394,-0.87076277,1.6072216,-1.2705243,-1.0681957,0.37305856,0.86666024,0.9975404,-0.032400087,0.5290199,0.6147558,-0.89297366,0.32738486,0.084667556,0.083144,0.55937,0.35643166,0.8079554,-0.38648647
P35354,-5.530421,-1.688844,-0.36613888,0.4233908,-0.108207665,-0.42709842,-0.35874018,-0.8515373,-0.3760685,-1.1260177,-1.0764058,-0.9383836,-0.9404906,0.6861947,-0.52943474,0.18518822,-1.1061968,0.4812831,0.70056194,0.34286225,0.12750275,-0.7932826,0.9126763,-1.1948283,2.4194512,0.25671822,1.0612917,-0.5455991,-2.0307765,0.5931697,-1.7871354,-1.4337182,0.33497894,-1.5450342,-1.7245194,-0.17343225,-0.047310445,-3.154431,-1.0402237,1.8788071,1.6086999,3.62898,-2.7043927,2.7748194,2.2527785,-2.5895238,-5.7381196,-0.91359437,0.43515307,0.70632625,0.36488852,-0.64230293,0.8790162,0.44564185,0.105423495,0.011369195,-0.40878117,1.8889809,1.0912366,-6.4232583,-2.4601026,-0.22023666,0.42474693,0.14885941
P35367,39.06051,-1.2139816,28.184464,1.8129727,7.262269,0.29598224,-6.2248907,0.52706575,-0.9231474,0.10145239,-1.1748255,1.9694579,-5.709465,25.402342,20.975,-11.929305,-6.093466,16.074326,8.370986,-0.28344655,-0.011028919,1.7263718,12.101206,-0.19147274,0.10695484,3.1884506,5.2119827,-10.909554,-3.319596,5.749834,-0.9162272,0.490491,-2.6373947,-2.2437716,2.9187472,2.315711,-2.6259575,2.2398255,-0.81955624,-2.6078877,-3.6693592,-2.2753215,-0.55262905,0.59147507,0.34961563,1.572646,-0.9236694,-0.62614715,0.58134913,0.84862274,0.2924462,-0.0009042253,-0.39702615,0.17925127,-0.61885774,0.070130005,-0.0664042,-0.27288523,0.29093713,0.12736107,-0.3001455,0.43448794,0.014514981,-0.4063558
P35372,5.5080066,92.420204,-1.5531259,-1.0609379,0.040431596,0.8672141,2.3794858,0.25128746,0.5617859,-0.19992647,-1.479661,0.05403216,-0.11962953,0.77326924,1.4760466,1.76086,-0.3031869,-4.3404317,-0.996639,-0.81847554,0.2822014,0.6943677,3.0444603,0.24928266,-0.33302513,-0.7007053,-0.7718134,0.5330262,2.43471,2.1315498,-5.456003,-0.22320205,0.33161995,6.154701,-6.3198323,-1.8945954,0.7590349,2.1330976,-3.9670374,-10.21965,2.1863713,2.028906,3.2371426,3.779541,2.0917776,0.03429025,-0.25000644,1.7902906,1.1422592,2.8591075,0.18418017,2.604418,-0.43654025,-0.65730417,-1.4567287,0.97206986,-0.44779882,0.9463778,-0.5799814,0.62733114,-0.28423002,0.5054285,0.92984015,-0.32737607
P35408,-4.807109,-1.5439025,-0.57943153,-0.26137173,0.12529105,-1.1961507,-0.06960722,-3.6007752,-1.9912993,-7.3448105,-3.8137994,-15.365995,23.137611,1.5565901,6.0454235,-2.4296196,2.8955793,-1.3684403,-0.351693,-0.15668534,-0.21505034,0.5919805,-0.36990407,0.63078547,0.32272753,0.55315906,0.5818382,-1.0156276,0.23150468,0.96569365,0.30248946,0.42387947,-0.021480393,0.6928689,0.100262195,-0.213416,0.76486206,0.17647766,0.9118677,1.4503585,0.42925805,-0.76470554,-0.108536474,-0.96263963,-0.6429265,0.15754502,1.3717897,0.0493238,0.5993355,0.007653127,0.16357264,0.8706275,0.21595001,-0.4121641,0.021603672,-0.013462075,-0.15895812,-0.90610915,-0.16469173,1.557494,0.9832644,-0.1711555,-0.4887904,0.0975192
P36544,-5.1421714,-1.4399071,-0.09770588,-0.48413143,-0.15519357,-0.48865548,0.13941541,-0.8809556,-0.49062985,-0.49334127,-1.0387237,-0.40825665,-1.1590385,0.101449564,-0.9561203,1.0733658,-0.8843675,-2.037119,-0.6873801,0.7812209,-0.39587924,0.22931765,3.1423445,-0.744518,-0.89516914,1.8936883,-2.1655073,0.42640433,-0.19333784,-1.8914777,1.9443362,0.0083466545,0.0076605575,-2.2236621,1.2827127,1.4065472,-0.9629159,-0.57583225,0.22479899,1.5219688,-0.3206348,-0.7193507,-1.2443823,-0.09740998,-0.12030558,0.22332428,0.27677536,0.3659144,0.07097718,0.029562548,0.82410055,1.4946947,0.03284116,-0.1558038,-0.71004146,0.1446802,0.3669058,-0.4320039,0.5930166,0.7782438,-0.30325866,0.9387484,-0.080627725,0.19896913
P41143,-0.74808496,76.72518,-7.725669,2.543235,-3.3461695,-0.03687576,-4.806262,-0.1429433,-0.46488482,-0.49913496,0.32257822,-0.100542605,0.041445397,-0.04061882,-0.5439392,-2.9751587,-1.5285877,3.543434,2.6196947,0.123180166,0.16218893,-0.60503256,-0.8896325,-0.3667294,-0.39212376,2.8053515,2.0494156,-2.8380072,-0.08318134,-7.1561403,3.852053,0.029689346,-2.2663212,-9.127299,3.2755015,-7.6093106,9.894648,-1.8847344,7.4377,4.008426,-3.8968062,-1.8570832,-0.36063242,1.1857675,-0.4864229,0.27499217,0.19027632,-1.4825715,-0.101647474,-1.738674,2.081464,-1.1948994,-0.15087302,1.0661209,0.009797203,-0.31137028,0.6503164,-0.13794324,0.18119743,-0.23625445,-0.06337698,-0.003269985,-0.29747206,0.06773955
P41145,1.3735347,83.25532,-5.693906,1.5892003,-1.1602187,-0.3147312,-3.2387393,0.5535766,0.03988327,0.43509036,0.7792492,0.39912176,0.6186013,-0.9380212,-0.99372274,-0.88767034,1.4854687,2.763951,0.29881856,0.51721704,-0.29214883,-0.25491902,-2.5278127,0.045039684,0.855527,-1.5325941,-0.9342868,2.210352,-2.2499754,4.001078,2.3896677,0.2656937,1.8630229,1.4893961,3.9722755,9.108339,-10.128818,-0.52344304,-2.6916583,7.278071,1.3234208,-0.27843857,-2.9072316,-5.2342844,-1.7931516,-0.3185311,-0.004011106,-0.39294916,-1.3043413,-1.0820866,-2.1494176,-1.5352746,0.54456925,0.18479383,2.1543097,-1.0200449,0.15183501,-1.2017266,0.51036036,-0.48507386,0.3425331,-0.6028022,-0.7595464,0.29291523
P41146,-5.658719,1.3179399,-0.89610183,0.055712454,-0.21822336,-0.35203066,-0.48586863,-0.729235,-0.31365076,-0.94741666,-0.5065958,-0.56118757,-1.1849775,-0.29543325,-1.2425047,0.48800042,-1.1186,0.62205106,0.21283054,-0.09784728,0.3906108,-0.8056266,0.19265944,-0.5635391,-0.49207604,-0.23890224,-0.40516084,0.2065992,-1.4887129,-0.43329594,-0.7297979,-0.8410205,-0.36681753,0.49834445,-1.4380348,1.5370233,-2.0067017,-0.039056595,-2.6603365,-1.2863866,1.2289803,-1.0617769,-1.463761,-1.2358258,0.056349177,-0.14988893,1.2527024,3.1872475,8.638818,-9.756911,7.808069,-4.01831,0.044390287,-0.46738306,-3.2831814,1.1476617,-1.628753,2.172083,0.24649496,-0.025155881,0.27664128,0.46693796,-0.5884575,0.3529897
P41594,-5.49204,-1.3629234,-0.6357028,-0.08119645,0.31938818,-0.45701814,0.021704836,-0.87987465,-0.3643661,-1.0686669,-0.6569872,-0.6785088,-1.5207555,-0.30019057,-1.4898368,1.0694127,-1.3946512,0.30312943,0.073216446,0.08513348,0.4174476,-1.0760511,1.1363505,-1.0439795,-0.88224345,0.29732296,-1.1250192,0.07361113,-5.083491,-1.4735602,-0.9692161,-5.2586846,-5.0719438,8.310417,11.666113,-2.4055142,0.7263063,0.8397911,0.986845,-0.29892612,0.5537834,4.4369783,1.6904659,0.04996417,0.2685213,-0.59793055,0.26852018,-0.2278653,-0.065132946,0.35661536,0.19044666,-0.7970172,-0.8737943,0.23509666,0.28899318,0.32839262,-0.4733636,0.72833407,0.48351592,-0.2077564,0.7803632,-0.23767336,-2.6074207,-2.3940792
P41595,50.438152,-7.3841505,-49.35872,-25.256973,-5.3876085,2.181072,-26.382793,-1.0972284,-3.311185,-2.7137039,0.7811698,-1.6102344,-1.9482545,0.60993874,-0.80789894,2.250518,-0.89318424,-15.684122,-1.6546125,-2.3669345,1.6911777,-1.6041311,-3.5623732,-0.9633475,1.1433522,4.577143,-3.7333887,-9.40644,0.10489608,8.935095,-6.661857,-1.7375636,0.87570965,-0.449702,2.729173,0.59354097,0.9063665,2.1125429,1.7831447,1.1010574,-0.5678196,-5.2581396,-0.8198574,0.68546444,-1.3768419,-4.8518405,-0.57346493,2.307718,-0.6866534,0.6216767,0.73014426,0.7404744,0.33064803,0.29539308,-0.43465045,0.49773645,-1.0876085,-0.18897703,0.016940057,-0.08160954,0.29310456,0.04170683,0.48007014,-0.6143664
P42261,-5.6820607,-1.6246186,-0.6167413,-0.017545944,-0.07224335,-0.36722308,-0.27517197,-0.742687,-0.31888,-0.9055934,-0.45530888,-0.56366485,-1.1711318,-0.26974058,-1.1949674,0.56485176,-1.0618263,0.49592018,0.057193626,-0.055219408,0.34278017,-0.74468577,0.17405395,-0.5200843,-0.48676395,-0.17453812,-0.2968673,-0.01607045,-1.3963026,-0.7168629,-0.45103315,-0.7936717,-0.6839117,-0.44726115,-1.4425923,0.5471092,-0.24671386,1.231319,0.57396525,0.065732665,-0.002621801,-0.027972529,-0.19527383,-0.013202249,-0.015951935,0.02379872,0.1336381,-0.21121863,0.047680855,-0.1603656,-0.13424318,0.06978678,0.019883797,-0.15428911,0.024539968,-0.03976088,0.26116428,-0.355029,-0.12741655,0.018608185,-0.08676692,-0.14659046,0.33932525,-0.25441024
P42262,-5.7759614,-1.6664797,-0.64346695,-0.018702911,-0.078395985,-0.40214443,-0.30289868,-0.82723385,-0.35741296,-1.0215241,-0.5164886,-0.6443071,-1.3571143,-0.31680962,-1.4161663,0.6731594,-1.2933651,0.62473416,0.07397703,-0.07444163,0.46482813,-1.0303179,0.24435246,-0.75136375,-0.7249334,-0.26253977,-0.51848143,-0.029761525,-2.7514224,-1.4545484,-1.0385962,-2.022031,-2.1103904,-1.6956286,-5.5057783,3.3880775,-1.7088422,9.420662,6.738923,1.9780359,-0.34630498,3.9789999,2.4684088,0.07348096,0.056153417,-0.0821061,-0.3522972,0.47364864,-0.09927265,0.31427696,0.24825108,-0.13184811,-0.028414719,0.25280473,-0.042079646,0.058341235,-0.35704947,0.4535338,0.1554333,-0.021397248,0.09617932,0.1544689,-0.3646528,0.26058415
P42263,-5.041846,-1.5560433,-0.13320298,0.83802986,-0.23586157,-0.90543306,-0.83660495,-0.034524098,-0.647281,0.83454424,0.0679041,0.42490575,-1.416591,1.3444346,-0.87956184,-0.13704453,1.9803411,-0.25587544,-0.5434463,2.6258624,-1.7337289,0.6521504,-0.14532216,-0.18738808,0.58742476,0.11594109,0.4538836,2.6546426,-4.4066157,1.3601785,3.413884,-1.208273,1.1630833,0.5679676,4.2018666,0.5172709,0.208732,-0.5484601,1.3405504,-0.79406536,-0.44744235,-0.37839153,2.7660306,0.5972571,-0.4143101,2.8418427,-1.767838,4.0282893,-1.536773,-1.4057482,0.22901581,3.3442328,5.3331223,0.20327567,-1.9808904,-1.3971384,0.26457033,-0.23406912,-0.37841165,0.28583297,-0.71521884,0.66874444,2.6663613,3.345033
P42574,-5.6909084,-1.6287458,-0.6195999,-0.011852499,-0.07401218,-0.37507433,-0.28143573,-0.7454858,-0.3279596,-0.8981481,-0.44894907,-0.56234014,-1.1960461,-0.24362853,-1.210643,0.5540743,-1.0152386,0.51982844,0.009367579,0.1619756,0.17922711,-0.628599,0.097613566,-0.49309367,-0.5367147,-0.109509595,-0.28898394,-0.078042015,-1.2548813,-0.7030574,-0.45280802,-0.69394505,-0.5117443,-0.26380154,-0.92029786,0.064011,0.06047765,-0.24345042,-0.6254936,-0.43100533,0.05208455,-1.1099807,-0.92484784,0.05571029,-0.023316436,0.38739833,0.12881735,-0.2906017,-0.39546418,-0.8095956,0.120713115,1.1206175,-0.64442724,-1.7617234,1.6225108,-0.65925866,-0.44294286,-0.5833139,0.56210023,0.07930183,-1.0781684,0.069704406,0.4941669,-1.0792983
P42685,-5.8576174,-1.7039919,-0.66882074,-0.019883305,-0.08508427,-0.44134897,-0.33460197,-0.928166,-0.4044866,-1.1665368,-0.59464264,-0.7503518,-1.6149166,-0.3856198,-1.7514433,0.84111816,-1.6869328,0.87930053,0.11166108,-0.1284463,0.8195574,-1.9705832,0.49959484,-1.7929214,-2.1399345,-0.8436572,2.6160622,0.06369915,3.5865757,1.5616924,0.5788499,0.74828684,0.40227744,0.16616271,0.52787465,-0.027758373,-0.0030698483,0.08606465,0.19796959,0.09153087,-0.018210623,0.22237845,0.16612636,0.0054919715,0.0039062458,-0.0060735354,-0.024337875,0.029712528,-0.0058896244,0.017611992,0.013138033,-0.0075245937,-0.00076123077,0.011421341,-0.0022608237,0.0020027421,-0.009364444,0.008304003,0.001970472,6.48784e-05,0.00054797647,-0.0015744492,0.0028857207,-0.0045647006
P43003,-5.6788387,-1.6231328,-0.6157335,-0.017499272,-0.07198074,-0.3656917,-0.27393806,-0.7388029,-0.31707948,-0.90008515,-0.4523603,-0.55970234,-1.1616821,-0.26727253,-1.1831303,0.5589845,-1.0486834,0.48810512,0.056125823,-0.053905975,0.33436945,-0.7243705,0.16894476,-0.50256747,-0.46796405,-0.16751325,-0.27587274,-0.014654344,-1.2536204,-0.637485,-0.38179156,-0.6399399,-0.4874909,-0.26052094,-0.83358157,0.06276678,0.007497548,-0.21816428,-0.58069813,-0.31540582,0.06576213,-0.8638177,-0.79967284,-0.037720785,-0.031718962,0.05575304,0.28273365,-0.433228,0.09761843,-0.32115215,-0.27652276,0.1801991,0.034720615,-0.36131614,0.09182378,-0.05235989,0.5681452,-0.7769963,-0.3231208,0.01770395,-0.3245901,-0.3511153,0.84752035,-0.55219615
P43005,-5.6781063,-1.6228094,-0.6155303,-0.017490713,-0.071935736,-0.36543867,-0.27373824,-0.73820025,-0.31680673,-0.89926964,-0.4519325,-0.5591425,-1.1604097,-0.26695502,-1.1816523,0.55826443,-1.0471795,0.48729706,0.056023445,-0.0537937,0.33366174,-0.72275037,0.16855219,-0.5013165,-0.46671897,-0.16705807,-0.2749109,-0.014599417,-1.2485522,-0.63482565,-0.3800056,-0.6367124,-0.4847325,-0.25891036,-0.8284064,0.06233297,0.0074422657,-0.21653308,-0.5761168,-0.31275803,0.06524135,-0.85627,-0.7920526,-0.037250075,-0.03137904,0.05514209,0.27935043,-0.4274444,0.096242465,-0.3166667,-0.2725647,0.17713717,0.03417752,-0.35513744,0.089781426,-0.052054726,0.55786216,-0.7629088,-0.31636322,0.017513966,-0.3174343,-0.34397364,0.82881397,-0.54057604
P43116,-6.4636426,-2.0002463,-0.87833387,-0.058627203,-0.10670403,-1.1382726,-0.6458933,-3.5046837,-1.9154135,-7.1555862,-4.1710534,-14.942407,22.486742,1.1543589,5.486963,-2.1636362,2.9285586,-0.11061674,0.2155846,0.24692594,-0.439564,0.683584,0.038154285,0.148779,0.6035822,-0.18428154,-0.05491735,0.41806328,0.5017643,-0.061064456,-0.09281667,-0.029106434,0.22669475,-0.37196198,0.029492911,0.03341963,-0.29793385,-0.5074548,-0.36204645,-0.11812614,0.12752661,1.206516,-0.34263855,1.0798146,0.86904156,-0.8673595,-2.5519302,-0.25416452,-0.040902816,0.37459505,0.120041154,-0.6800646,0.30165398,0.44491392,0.04323957,-0.0069524143,-0.2958498,1.727074,0.8791827,-5.4987984,-2.255464,-0.06919197,0.44002965,0.15377723
P43119,-6.3574567,-1.9491675,-0.84627783,-0.06355086,-0.10158885,-1.044205,-0.59454376,-3.190801,-1.7335604,-6.4594045,-3.7449777,-13.376699,19.994377,0.9661628,4.798335,-1.8780618,2.5251617,-0.08207452,0.15261964,0.13506679,-0.33083916,0.5929511,-0.021950927,0.24143018,-0.09240969,-0.09485826,-0.1275131,0.42602456,0.40825188,-0.15000176,0.076363966,0.072340645,0.076556906,-0.08178321,0.19433184,0.068579376,-0.21994956,0.19446047,-0.13233842,-0.52932966,-0.25290915,-0.035064306,0.30355033,-0.035357278,-0.08283223,0.27468035,0.43095288,0.10874867,-0.22336495,-0.12597619,-0.09146511,-0.0834561,-0.19718927,0.0043497356,-0.028617088,0.01035741,0.14674917,-0.28014407,-0.25531507,1.4475371,0.48193377,0.10074677,-0.0004973758,-0.08970736
P43403,-5.852546,-1.7017034,-0.6673244,-0.019816477,-0.08471841,-0.4392409,-0.33291367,-0.9229104,-0.40206406,-1.1591632,-0.5907102,-0.7450918,-1.6024503,-0.38237473,-1.7358892,0.83340603,-1.6695689,0.8687336,0.110169016,-0.12646036,0.8066496,-1.9375595,0.49085784,-1.7590129,-2.0962489,-0.8260231,2.5425847,0.061726518,3.4659154,1.5071096,0.5554258,0.7148707,0.3813232,0.15630792,0.4964542,-0.025729064,-0.0028361965,0.0793638,0.1810935,0.082882665,-0.016407741,0.19961858,0.14650641,0.0047040787,0.0032215125,-0.004898769,-0.018746225,0.021756304,-0.0041680257,0.011962244,0.008389471,-0.0047991076,-0.0002181323,0.006071738,-0.0012523681,0.00080153026,-0.0015554486,-0.0022560589,-0.0017458192,0.00039295224,-0.0028903717,-0.0056825355,0.011759928,-0.010694464
P43681,-0.4739209,0.48059994,5.748562,-3.5468788,2.1274192,-1.0101618,6.000379,-1.1717612,-0.21243046,0.13874191,-4.090138,-0.08667495,-2.8964696,3.2206993,1.6185567,5.389981,-0.6499509,-15.81273,-4.129394,1.8110436,-1.7938415,3.4867642,16.46255,-1.4591725,-2.8300638,6.9065695,-9.416179,2.5182376,4.7793493,-5.6009827,5.9544897,1.886224,-0.40603665,-5.4461102,4.06454,2.5516224,-3.8551934,-0.46385092,-0.8452363,0.7915672,-1.5369025,2.09727,-0.76038706,0.90138716,1.0181487,-0.11180136,-1.0930697,0.6307281,-0.5926304,0.24121757,1.2832547,1.9233137,0.8760446,0.35614556,-0.23304336,0.8747913,0.25192916,2.524006,-2.4040227,0.7772295,0.07253692,0.41147038,3.4993973,-4.305368
P46098,5.5255766,2.261995,6.986263,-4.3451858,4.8684754,-1.3013039,7.3091063,0.40593168,0.547147,1.251431,-1.4108263,0.32202393,-1.1475103,1.9139849,1.2338854,5.6750016,3.7082238,-9.730695,-7.0024996,1.7917327,-1.8258699,2.305594,3.4929073,0.81751996,0.8875429,-4.3863096,0.36146206,4.704531,-2.9589756,8.85242,-1.5329943,0.12728508,1.800246,8.250203,-2.771013,-0.14998081,3.1111815,0.6392267,4.2111993,2.322298,-2.3474836,-6.109105,-1.003701,1.4879113,2.1955464,7.008571,-3.924466,-3.7358572,-2.8391593,-2.125469,0.8262029,-4.9913673,-0.69778925,2.8057628,-1.052255,-0.51601964,1.88627,0.20992298,0.7266324,0.909449,-1.9934081,1.946953,0.6763456,-2.1552436
P47211,-5.989,-1.7650996,-0.71122664,-0.0219377,-0.09718411,-0.5138766,-0.3940452,-1.1237466,-0.49744487,-1.4587853,-0.7551448,-0.97412795,-2.1887636,-0.54818267,-2.5792437,1.268195,-2.8299158,1.8613284,0.31666812,-1.2395635,13.527984,18.075274,-1.93795,2.7997098,1.6862988,0.54128784,0.35015687,0.015000113,1.0732018,0.5061256,0.23175253,0.32806677,0.19534862,0.085436285,0.27300674,-0.014228101,-0.0014507967,0.048757706,0.112390056,0.050926894,-0.010707292,0.12815516,0.10126638,0.006005148,0.014652229,0.009903194,0.021981372,0.033371743,-0.019078584,0.038716502,0.019049147,0.018139949,-0.00145202,0.011177722,-0.007524958,-0.04449878,0.0058197984,-0.09952427,-0.09684626,0.030820895,-0.11147565,-0.08647349,0.0560339,-0.06879882
P48039,-4.6812744,-2.2470233,-2.2619715,-1.8634511,-0.53116363,-2.408551,-4.3329067,-6.685029,45.67018,8.8626375,2.6282709,2.3372731,3.8016493,0.19479214,1.8170063,-2.455112,1.0057919,-0.5314766,0.23542982,0.37281498,-0.48813853,0.6736726,0.06521779,0.33674884,0.3130011,-0.6214763,0.31730294,0.822975,-0.26170394,0.98397976,0.4168445,0.18792753,0.2978255,-0.2504257,0.39026874,0.00820981,-0.11103175,-0.011160819,0.2693274,0.18719101,-0.5107597,-0.18758176,0.36969832,-0.29791412,0.67377627,0.31455752,-0.1226523,0.2500572,-0.015252234,0.12065539,-0.14012118,-0.5058451,0.053847846,0.4069031,0.015817724,-0.04484955,0.00093524565,0.52910995,0.022881672,0.20380996,0.15924767,-0.21122164,0.25597933,-0.28525862
P48048,-5.1794496,-1.6732298,-0.4405583,0.87562,0.2389724,-0.788308,-0.5713705,0.10468985,-0.3578007,0.16498531,0.4414623,0.035325896,-1.4340411,1.1572981,-0.8200129,0.008685106,1.794995,0.21656959,-0.12601592,1.7031385,-1.0696148,0.22216475,-0.4869184,-0.05828334,0.6282418,-0.7608866,0.0041670133,2.081281,-2.7561686,1.9621235,1.6890802,-0.2500171,1.4674239,-0.9498119,-0.20439659,-0.34833622,0.007811783,-0.52824724,0.03244593,-0.6696396,-0.6338017,-0.98311627,1.6299937,-0.31190985,-0.6771003,-0.14206378,0.019103955,0.48924145,0.8564778,0.6874569,-0.553904,-0.39554188,-0.244888,-0.030757157,0.17882915,-0.2622906,-0.12694918,-0.04728457,-0.2699254,-0.19062705,0.7029269,-0.5596913,-0.20553853,-0.022951135
P48058,-5.7169437,-1.640141,-0.6266172,-0.01797145,-0.074499324,-0.3800034,-0.28530785,-0.77352536,-0.33291808,-0.9477732,-0.47754407,-0.5929306,-1.2384496,-0.28673506,-1.2746922,0.6038478,-1.1448493,0.5418212,0.06314445,-0.06198897,0.3856984,-0.8447785,0.19862765,-0.60052896,-0.5691938,-0.20493895,-0.37168172,-0.020707542,-1.8456256,-0.9603825,-0.641877,-1.1875267,-1.1317296,-0.8317392,-2.6933537,1.3911874,-0.67817986,3.6372285,2.3552492,0.6067797,-0.098109044,1.0866411,0.5204323,0.008590173,-0.0027455846,-0.00562089,0.019233875,-0.073909,0.02022644,-0.07339904,-0.057211794,0.014272319,0.01681443,-0.066714406,0.0011845604,-0.027386345,0.17650162,-0.23461485,-0.0874851,0.02626573,0.0020690272,-0.10207555,0.28351995,-0.241611
P48145,-5.6384964,2.701964,-1.0492725,0.11160029,-0.31721827,-0.34316134,-0.6413297,-0.71461135,-0.31611848,-0.9550479,-0.50575,-0.5507456,-1.1614134,-0.30148864,-1.248542,0.3501707,-1.1566849,0.80859524,0.38607538,-0.099465676,0.39889044,-0.82975847,0.118738495,-0.5762803,-0.49078307,-0.04937998,-0.2157046,-0.026762644,-1.4537132,-1.1852852,-0.14152187,-0.7868326,-0.67184794,-1.4071531,-0.5222992,-0.21002628,0.40019804,-0.58211243,-0.20360011,0.6970353,-0.32172462,-1.6253321,-1.5165871,-0.7546864,-0.60643363,0.1091237,0.77426165,-3.0197687,-3.31826,-0.78879786,-6.710635,-2.6128109,0.9129642,-7.944218,-8.499528,3.458023,-4.304765,4.082694,-0.04321147,0.34441286,0.39478818,0.75674546,-0.33566412,0.34748015
P48169,-6.0942974,-1.8462454,-0.7416813,0.12274674,-0.2109173,-1.0021116,-0.8940321,-2.082788,-1.8421441,-3.4730704,-1.2160074,13.729785,5.4556623,-1.2144071,1.2228962,0.22142528,-0.451943,-0.18835267,-0.089558475,-0.5640372,0.4465242,-0.36505118,-0.12908755,-0.12839127,-0.324809,-0.12702496,-0.27000293,0.15796758,-0.3043946,-0.49361473,0.20155825,-0.24471883,1.1031592,-0.6771332,1.1998595,8.3881,11.413043,4.3441405,-6.341372,-1.1565547,0.4354764,2.2689767,-2.947767,-1.6437576,0.42001587,-0.9836318,0.5855189,-3.2492263,0.49518818,0.38505474,0.0025715963,-1.1052238,-0.43994248,-0.389465,-0.17721805,-1.1452751,1.5535636,-2.3125749,4.8131065,-1.0894532,2.3765705,0.12095358,2.859823,-0.72741085
P49146,-6.084707,-2.2230315,-0.6426127,1.0495245,-0.33401543,-4.5854983,-2.3401737,39.54681,3.6361437,1.639262,0.6506539,0.81194466,3.551348,-0.722779,1.8521601,-0.49119732,0.19298269,-1.1610187,-0.03695842,0.20715378,-0.37741652,0.5932092,-0.16455136,0.3516879,0.47382206,-0.060570225,0.032625984,1.2266542,-0.62288904,2.1326308,2.2307603,0.7625264,3.112262,-1.7582932,1.792951,-7.9486837,-1.536178,8.658615,-4.6882167,1.0916077,3.6182263,1.3995126,-5.2212014,3.6963603,-7.2332983,2.0196657,-0.70781296,-0.585313,0.25233713,-0.2732422,-0.18196815,0.050477806,0.043503374,-0.25435343,0.050112657,-0.044150226,0.6596633,-1.3537332,-1.829806,-1.3339553,0.8656693,3.650333,-0.5770173,-0.2171728
P49286,-5.1082892,-2.3640366,-3.3079336,-2.5049655,-0.52939296,-2.3169966,-4.504903,-8.151773,50.093643,9.082395,2.249244,2.2068174,4.3475327,-0.6992968,1.6325247,-2.7123046,-0.6451963,-0.75491047,0.78510284,-0.7979968,0.44380787,0.00063524576,0.48123008,0.17645407,-0.29132825,0.75536877,-0.23854105,-1.0514789,1.0787308,-1.098395,-0.52160954,-0.056466646,-0.13355128,0.45182583,-0.23201972,0.0066583534,0.11503681,0.058864925,-0.14421058,-0.12520644,0.41723606,0.35025513,-0.3611183,0.39233458,-0.6652906,-0.30443975,0.14432001,-0.23753941,-0.004977995,-0.12834537,0.16406265,0.494722,-0.053368382,-0.38520253,-0.019388061,0.055230204,-0.04342668,-0.5162377,-0.02093308,-0.20203601,-0.14451428,0.19656074,-0.26322445,0.2848537
P50391,-6.5958495,-2.1719635,-0.8288194,0.10435181,-0.6677734,-4.1399703,-2.0291572,38.850037,3.7045293,0.43692324,-0.36356944,0.13053598,3.911503,-2.4312766,1.4422053,0.16989906,-3.3437688,-0.86184436,0.20549963,-2.2571545,1.5958053,-0.7517491,0.80061734,-0.30897114,-1.2480046,0.8992226,-0.5419337,-3.136072,2.8259647,-3.8820739,-3.4193177,-0.35253653,-5.829363,2.826226,-2.6247928,9.808764,1.8886036,-9.996236,4.5539455,-1.0859643,-1.4354482,0.38991028,3.253105,2.2398303,-7.0626497,1.5972782,-1.2956988,0.51258934,1.0602206,0.8650998,-0.27603838,-0.7058162,-0.21634154,0.39091247,0.0128721995,-0.17332372,-0.43418813,0.7972014,0.8730237,0.5792346,-0.12896919,-1.2360759,0.25369486,-0.11400634
P50406,38.473175,0.37448692,-3.2851474,-8.675715,17.571848,-0.73952377,16.150984,0.6981467,1.5708174,2.2890868,-10.582836,0.72989005,-0.13777432,1.5827228,2.4829571,0.33749318,-0.45215693,7.8960357,-23.295528,-4.0057764,2.8721292,-1.589815,-0.1019598,0.87939364,-2.2739606,-10.653905,-0.5113856,-8.150705,0.6077823,-8.336325,-4.835976,-6.5882707,13.609685,-1.8712428,2.7431254,0.07712058,-0.6499688,-0.8996255,1.0491812,1.0947304,0.9365046,0.7475818,1.9897629,-0.43275338,-0.43681663,1.1093994,-0.21423829,0.15636656,0.98175126,0.012517661,-0.4664912,0.49479747,-0.5772236,-0.308797,-0.16373508,-0.2458327,0.42584494,0.33379966,0.0012380619,-0.05614587,0.43620032,0.1364657,0.09460984,-0.05443356
P51451,-5.8509765,-1.7009952,-0.6668613,-0.019795792,-0.0846051,-0.43858844,-0.33239135,-0.92128354,-0.40131453,-1.1568807,-0.5894933,-0.743464,-1.5985918,-0.38137007,-1.7310752,0.83101904,-1.6641947,0.8654632,0.10970754,-0.12584573,0.8026538,-1.9273382,0.48815346,-1.7485172,-2.0827272,-0.82056475,2.5198424,0.061116196,3.4285698,1.4902145,0.5481751,0.7045282,0.3748379,0.15325774,0.48672885,-0.025101071,-0.0027637654,0.07728994,0.17587006,0.080206014,-0.015849663,0.19257413,0.14043373,0.0044601797,0.0030095775,-0.0045351824,-0.017015541,0.019293671,-0.0036351897,0.010213564,0.0069197738,-0.003955497,-5.0003473e-05,0.004415909,-0.00094024494,0.00042978648,0.0008615662,-0.0055244784,-0.002896082,0.00049448473,-0.0039545437,-0.006954034,0.014506629,-0.012591782
P51575,-5.2092695,-1.687162,-0.44868702,0.8814425,0.23957813,-0.8049157,-0.5844298,0.083523035,-0.37262973,0.13519523,0.43031123,0.012556432,-1.5136269,1.1622193,-0.91013265,0.046727665,1.7404027,0.29320177,-0.11570192,1.0337404,-1.7598562,0.5534512,-0.549636,0.02563812,0.70675474,-0.7714089,0.015036182,2.198344,-2.9013965,2.0941217,1.8105751,-0.27498052,1.5892093,-1.0537323,-0.25182015,-0.38698527,0.009110437,-0.60736084,-0.00073306105,-0.79260576,-0.7260747,-1.2097826,1.8405914,-0.38192025,-0.83478993,-0.17040266,0.077093,0.5601272,1.1645999,0.8591847,-0.83055884,-0.49920648,-0.3510751,-0.15797736,0.31009316,-0.4447932,0.024683516,-0.45317534,-0.7153611,-0.36972934,1.2724713,-1.6197153,0.3863515,-1.1575752
P51813,-5.857454,-1.703918,-0.6687725,-0.01988128,-0.08507247,-0.4412809,-0.33454767,-0.9279964,-0.4044085,-1.1662987,-0.5945154,-0.75018185,-1.6145147,-0.38551545,-1.750942,0.84086937,-1.686373,0.8789597,0.11161332,-0.1283823,0.8191416,-1.969519,0.49931318,-1.7918285,-2.1385276,-0.8430894,2.6136947,0.063635014,3.5826883,1.5599341,0.578095,0.74721074,0.40160224,0.16584548,0.52686214,-0.027692955,-0.00306259,0.08584854,0.19742608,0.091252275,-0.018152524,0.22164497,0.16549416,0.005466524,0.0038842133,-0.0060357675,-0.024157636,0.029456155,-0.0058341143,0.017429933,0.012984996,-0.007436754,-0.0007437387,0.011248952,-0.0022283103,0.001964046,-0.009112848,0.007963713,0.0018507524,7.5450465e-05,0.00043717975,-0.0017068109,0.003171637,-0.004762222
P54760,-5.900501,-1.7233444,-0.68147475,-0.020448875,-0.08817839,-0.45917672,-0.34887967,-0.97261196,-0.42497313,-1.2288953,-0.6278991,-0.7948359,-1.7203443,-0.4130668,-1.8829818,0.9063397,-1.8337766,0.9686595,0.124277495,-0.14523758,0.9287257,-2.2498672,0.57348496,-2.0796883,-2.5093863,-0.99279064,3.2374604,0.08037223,4.607003,2.0233102,0.7769504,1.0308902,0.57948756,0.24950707,0.7935994,-0.044918925,-0.00504687,0.1427322,0.3406918,0.16466883,-0.03345802,0.41485995,0.33205366,0.012156014,0.00969685,-0.016008722,-0.07162639,0.096999176,-0.0204488,0.065392636,0.053296667,-0.030574424,-0.005354635,0.05666345,-0.010788782,0.012160833,-0.07540516,0.09761038,0.03339944,-0.0027097543,0.029626269,0.03316824,-0.07216454,0.0472753
P54762,-5.908488,-1.7269486,-0.68383086,-0.020554217,-0.0887547,-0.46249634,-0.3515382,-0.98088855,-0.4287876,-1.2405068,-0.6340916,-0.80311936,-1.7399759,-0.41817778,-1.9074762,0.91848433,-1.8611217,0.98529935,0.12662706,-0.14836386,0.949054,-2.3018727,0.5872445,-2.1330864,-2.5781825,-1.02056,3.353169,0.08347577,4.797016,2.109268,0.8138392,1.0835146,0.6124858,0.2650261,0.84308094,-0.048114754,-0.0054145623,0.15328476,0.36726803,0.17828777,-0.03629739,0.45070204,0.36295125,0.013396987,0.010775211,-0.01785864,-0.080432,0.1095286,-0.02315985,0.074289806,0.060774546,-0.034866605,-0.006210046,0.06508803,-0.012376827,0.014052288,-0.087702595,0.11424019,0.039251868,-0.003226529,0.035040997,0.039637677,-0.0861398,0.056928467
P56373,-6.0490246,-1.7931278,-0.72991216,-0.01883073,-0.100557104,-0.5487875,-0.42243075,-1.2008424,-0.5382521,-1.5733076,-0.8135645,-1.0627404,-2.441861,-0.5901318,-2.932942,1.4422334,-3.2507658,2.343897,0.427159,-21.55693,-19.57164,9.537394,-1.3532863,2.5151467,1.5903785,0.58972585,0.3935191,-0.0657596,1.3813951,0.5379368,0.23476903,0.43741745,0.22271083,0.15525341,0.40451628,-0.013390791,-0.0030452153,0.09704792,0.1957272,0.120676234,0.001138943,0.28703973,0.15389861,0.020228421,0.03358954,-0.005403324,-0.055875752,0.053612195,-0.06058933,0.018806593,0.07768998,-0.0059817554,0.01140687,0.05848906,-0.026554927,0.034526426,-0.07761538,0.13139161,0.08793444,0.022736747,-0.055300195,0.17672361,-0.14507759,0.20383671
P61278,-5.1794496,-1.6732298,-0.4405583,0.87562,0.2389724,-0.788308,-0.5713705,0.10468985,-0.3578007,0.16498531,0.4414623,0.035325896,-1.4340411,1.1572981,-0.8200129,0.008685106,1.794995,0.21656959,-0.12601592,1.7031385,-1.0696148,0.22216475,-0.4869184,-0.05828334,0.6282418,-0.7608866,0.0041670133,2.081281,-2.7561686,1.9621235,1.6890802,-0.2500171,1.4674239,-0.9498119,-0.20439659,-0.34833622,0.007811783,-0.52824724,0.03244593,-0.6696396,-0.6338017,-0.98311627,1.6299937,-0.31190985,-0.6771003,-0.14206378,0.019103955,0.48924145,0.8564778,0.6874569,-0.553904,-0.39554188,-0.244888,-0.030757157,0.17882915,-0.2622906,-0.12694918,-0.04728457,-0.2699254,-0.19062705,0.7029269,-0.5596913,-0.20553853,-0.022951135
P98161,-5.9593644,-1.7535712,-0.70387065,0.013773715,-0.095994934,-0.5257054,-0.38492945,-1.0310587,-0.5150129,-1.3298024,-0.59840965,-0.89217347,-2.067251,-0.21093145,-2.2017715,0.97692376,-1.8930405,1.124964,-0.039754782,0.72394615,1.3299963,-6.7463675,1.7307636,22.23079,3.079697,2.1251624,0.1502155,-0.1770897,2.4403143,-0.04518659,-0.4162597,0.39563948,-0.22150186,0.13742487,0.49568704,0.25169685,-0.30588394,0.17752779,-0.060046654,0.046591014,0.04676013,0.45109206,-0.30048835,-0.08535342,0.28245294,0.38453355,-0.35892984,-0.053165205,-0.5198172,-0.105249375,0.15676115,-0.28947225,-0.04961654,0.34146848,-0.19386119,0.033302356,0.25114277,0.36061367,0.08649271,0.10358146,-0.29880664,0.42844817,0.1691058,-0.07367502
Q01959,18.408958,0.18579188,32.200542,-21.95654,-23.725262,-0.15529251,0.16817906,-0.6176772,-0.4085485,0.783116,-5.190626,-0.2549951,-0.7004639,-0.74767977,-3.526941,-5.930463,0.19850464,-6.2583814,-5.026268,-0.5089505,0.32692406,-0.49436784,-2.3639832,-0.48543876,1.4647655,6.36203,8.1943445,-6.3348575,-2.7122622,-6.1272035,8.170662,2.129827,-0.81816876,2.1312234,-1.9307739,-0.707063,0.18946132,1.3521878,-2.246327,-1.0855935,7.8749075,-3.6020963,6.8847814,-4.1255403,-2.3213866,-3.9151595,-3.3642728,-2.7368822,-1.6409453,-0.8550357,0.61003596,-0.99816674,0.64381623,0.6751942,0.40180388,-0.3324643,1.317802,1.5696223,0.2426098,0.5126724,-0.7941226,0.98276746,-0.038794957,-0.27376282
Q02763,-5.860002,-1.7050687,-0.66952455,-0.019914836,-0.08525644,-0.44234085,-0.33539644,-0.93063897,-0.40562657,-1.1700058,-0.59649307,-0.7528269,-1.6207823,-0.3871471,-1.7587614,0.8447468,-1.6951022,0.88427174,0.11236273,-0.12938048,0.8256319,-1.9861217,0.5037058,-1.8088758,-2.16049,-0.8519551,2.650635,0.064626075,3.6433508,1.5873755,0.589871,0.76401037,0.41213682,0.17079978,0.54265875,-0.028713044,-0.003180109,0.08921728,0.20591034,0.0956001,-0.019058993,0.23308748,0.1753582,0.0058627096,0.0042283917,-0.006626341,-0.026968872,0.033456232,-0.0066996654,0.020270387,0.015372357,-0.008806986,-0.0010168494,0.013938427,-0.0027353503,0.002567907,-0.013038732,0.0132727465,0.0037190688,-8.956854e-05,0.0021658402,0.0003585518,-0.0012898444,-0.0016804832
Q05655,-5.9572964,-1.7526063,-0.7032185,0.013486126,-0.095816486,-0.5244919,-0.38411054,-1.0289857,-0.5135153,-1.3267403,-0.5974894,-0.889781,-2.0606334,-0.21163888,-2.1945233,0.97405154,-1.8874044,1.1206098,-0.03894409,0.71812356,1.32323,-6.704128,1.719924,22.071566,3.0546706,2.109384,0.14694805,-0.17621408,2.4165742,-0.050324783,-0.4174607,0.38865727,-0.22460371,0.13492672,0.48751995,0.25162667,-0.30520305,0.17552556,-0.0643115,0.04422622,0.04723362,0.44456404,-0.30619508,-0.08575392,0.2828475,0.38587695,-0.3584781,-0.05593697,-0.52176434,-0.10771809,0.1559455,-0.29022738,-0.04986966,0.34192228,-0.19478306,0.033041388,0.25618795,0.36037531,0.0860892,0.10502751,-0.30395088,0.4320613,0.17449395,-0.076458514
Q08209,-5.5210752,-1.7035686,-0.59317076,0.38737634,-0.1407122,-0.5460839,-0.3681996,-0.37693524,-0.47802362,-0.48928928,-0.12223255,-0.32344458,-1.3530669,0.45070115,-0.97924095,0.3696226,0.22985142,0.3092028,0.03571853,0.68369496,-0.25006655,-0.33500656,0.15789145,-0.10915258,-0.04986104,-0.43313268,-0.24263616,0.7495542,-1.8161695,0.3096778,0.5055438,-0.549888,0.6969652,-0.473053,-0.6842757,-0.41949964,0.29406106,-0.3557851,-0.17204708,-0.784784,-0.42923298,-0.94335574,0.55739164,0.079025514,-0.40506145,-0.07555735,0.17823556,-0.044554148,0.6370319,0.3380524,-0.20863949,0.036040723,-0.47603303,-0.4270101,-0.012346948,-0.21812664,-0.054156706,-0.7817673,0.043882757,-0.21968229,0.19716656,-0.63066,-0.3306129,0.124052756
Q12809,0.18504581,-1.9155873,0.13255928,2.0465016,2.415197,-0.39352196,1.8975004,-0.6604836,-0.20174594,-0.8736032,-0.042168923,-0.17002894,-0.8378955,0.015637059,-0.72634506,-1.5062598,-1.547478,5.6881375,-0.51943135,-0.4772204,0.71834904,-0.8318492,2.314855,-0.5511995,-1.5829179,-1.883382,-4.3289504,1.288296,0.072410695,-0.55060786,-0.52080274,-0.35854232,-1.9477624,-2.2968636,-0.38108385,0.5662689,0.49995938,-0.74444306,-1.5422373,1.0972672,5.9061713,-1.474092,1.6274744,0.7443743,-0.2813082,-0.5074679,0.6677415,1.0258094,-3.7216733,-0.12616198,1.9148828,-0.5919713,-1.4699283,1.9516051,-2.8032622,2.0908558,-3.1150649,-6.9265594,-2.5336885,-0.17122193,-7.1191607,-2.405805,-1.8996291,-0.56330657
Q13003,-5.7171774,-1.6402448,-0.6266832,-0.01797429,-0.07451429,-0.38008818,-0.28537524,-0.77373004,-0.33301115,-0.94805276,-0.47769147,-0.59312433,-1.2388942,-0.2868474,-1.2752174,0.60410446,-1.1453953,0.5421218,0.063183226,-0.062033202,0.38597748,-0.84542865,0.19878715,-0.6010494,-0.5697257,-0.20513478,-0.37215808,-0.020736786,-1.8484607,-0.96191525,-0.64306754,-1.1899679,-1.1344744,-0.8340708,-2.7009373,1.3962098,-0.6807378,3.6514518,2.3656797,0.6099116,-0.098658934,1.0930316,0.52446043,0.008709588,-0.0026795736,-0.005776576,0.018652707,-0.07324777,0.020098493,-0.07300162,-0.056857005,0.013994453,0.01681315,-0.066313244,0.0010633868,-0.02734279,0.17621389,-0.23420693,-0.08735715,0.02632702,0.002514284,-0.101963885,0.2835052,-0.24178296
Q13936,-5.1794496,-1.6732298,-0.4405583,0.87562,0.2389724,-0.788308,-0.5713705,0.10468985,-0.3578007,0.16498531,0.4414623,0.035325896,-1.4340411,1.1572981,-0.8200129,0.008685106,1.794995,0.21656959,-0.12601592,1.7031385,-1.0696148,0.22216475,-0.4869184,-0.05828334,0.6282418,-0.7608866,0.0041670133,2.081281,-2.7561686,1.9621235,1.6890802,-0.2500171,1.4674239,-0.9498119,-0.20439659,-0.34833622,0.007811783,-0.52824724,0.03244593,-0.6696396,-0.6338017,-0.98311627,1.6299937,-0.31190985,-0.6771003,-0.14206378,0.019103955,0.48924145,0.8564778,0.6874569,-0.553904,-0.39554188,-0.244888,-0.030757157,0.17882915,-0.2622906,-0.12694918,-0.04728457,-0.2699254,-0.19062705,0.7029269,-0.5596913,-0.20553853,-0.022951135
Q14831,-5.7129965,-1.6363794,-0.6249154,-0.016847473,-0.06334593,-0.38288146,-0.2758376,-0.7691007,-0.33349136,-0.9360139,-0.47840342,-0.5854238,-1.2405372,-0.272325,-1.2664764,0.61691135,-1.1140034,0.50298154,0.055632647,-0.013082072,0.3473017,-0.8111389,0.2822802,-0.6106014,-0.5521124,-0.1257015,-0.42587876,0.052860424,-2.151859,-0.8299057,-0.45799625,-1.6753304,-1.4989651,1.655142,2.0083663,-0.49481392,0.18137193,0.0034974876,-0.20015499,-0.3232961,0.16188894,0.3106053,-0.19341186,-0.018530425,0.01121084,-0.10683813,0.20042957,-0.5588194,0.30672887,0.14346175,-0.1370082,-0.5020132,-1.4071147,-0.17759165,0.8883161,0.719828,-0.059455335,0.0053248378,-1.7123541,0.48103988,-0.9823048,0.26765785,4.056377,4.0590563
Q14832,-5.776156,-1.662748,-0.64320713,-0.018671032,-0.056896422,-0.4092078,-0.28512052,-0.82963455,-0.36098653,-1.0177138,-0.52681756,-0.64263046,-1.3798194,-0.30254042,-1.426393,0.7161607,-1.2795957,0.56715894,0.065972485,-0.0012233463,0.42267865,-1.0164052,0.4391159,-0.8144392,-0.74138844,-0.10566365,-0.7055462,0.09442566,-3.772893,-1.3528042,-0.808504,-3.7199569,-3.7421875,5.5542293,7.4223266,-1.9046978,0.6543113,0.41019273,0.25830582,-0.8143253,0.64769965,3.6139638,1.1968737,0.08528069,0.3064235,-0.50833446,0.6632359,-0.5531762,-0.1418044,0.09850444,0.0082726935,-1.1368695,-1.6790936,0.042464405,0.956801,0.9131524,-0.56379473,1.0977646,-0.46866316,-0.13322301,1.2091838,-0.8545187,-3.6325552,-4.5478435
Q15722,-5.945584,-1.7558662,-0.67097545,0.12173299,-0.055588137,-0.5655893,-0.43924913,-0.8991883,-0.4783227,-1.1267309,-0.62129736,-0.7472916,-2.119376,0.39689666,-1.8177322,0.6871259,-0.8448563,1.0358213,0.6247401,2.754976,-0.9344438,-2.1362948,1.3535581,-5.6285777,23.777246,-5.9052486,-3.1407819,-2.869701,7.3498755,-4.4077005,-0.014203974,1.5330637,-2.1052697,2.0927868,1.2382901,0.4782038,-0.004255271,2.7900355,0.35648862,-1.160595,-0.6784359,-2.35157,0.22868232,-1.497027,-0.89956254,1.6319598,3.215064,-0.0062093628,-0.7517003,-0.9080698,0.0006928053,0.49904397,-0.30684426,-0.24930333,-0.13412584,0.10378101,0.36155838,-0.55869997,-0.13029483,0.34868696,-0.34090748,0.13509218,0.65618205,-0.36086616
Q15822,-0.548372,0.14802657,5.2154536,-2.881354,2.794607,-0.8875309,6.5006604,-0.91387534,0.1683002,-0.55095214,-3.3408,-0.5144347,-2.4460409,2.867433,1.7957429,4.7044764,-0.78857607,-11.23589,-2.471334,0.28504494,-0.49585107,1.7977495,10.851057,-0.9523192,-1.5503949,3.5150568,-4.8219466,0.3767544,2.0116966,-0.76664144,0.1368949,0.2592642,-0.3731964,0.1043167,-0.3696409,-0.7394217,0.1427294,0.3352458,-0.19118428,-0.1112858,-0.043394096,-0.6075257,-0.019836558,-0.47314897,-0.41538936,-0.7739917,0.9133152,-0.91850746,0.6405261,0.2449438,-0.8691685,-1.6931906,-0.8720759,-0.2091323,0.056045018,-0.91699815,-0.07564603,-1.9301683,2.6635633,-0.6649258,-0.035002172,-0.033689447,-3.1756258,3.9460557
Q16099,-5.7459545,-1.652017,-0.6318566,-0.009512318,-0.07009064,-0.40185866,-0.29576573,-0.78907937,-0.35261717,-0.9492504,-0.49043193,-0.59645903,-1.3119221,-0.2540123,-1.3393811,0.6353044,-1.114872,0.5300333,0.040288758,0.090180926,0.30421135,-0.852304,0.28395116,-0.67600447,-0.5782447,-0.14527355,-0.45007637,0.2864161,-2.9807541,-0.88635343,-0.20059045,-2.3444204,-1.9515476,2.6699219,3.8699076,-0.8303493,0.4018382,-0.07898903,0.065942325,-0.94836116,0.28006455,1.3031441,1.1481309,0.32652485,-0.045401104,1.4943932,-0.5113522,2.8424547,-1.7630591,-2.0612655,-0.054831684,4.0301056,8.320128,-0.0328027,-4.383522,-3.7207537,1.8419354,-2.6396928,4.202584,-0.81384206,-0.099237055,0.25798142,-0.89737517,0.13456687
Q16445,-6.389446,-2.0187736,-0.7863237,0.2266094,-0.28249797,-1.4896638,-1.4007753,-3.1535716,-3.0392873,-5.55337,-1.874359,25.06319,10.690518,-1.8152475,3.3280764,-0.10177492,-0.15994683,-0.5216972,-0.080239244,-1.2038231,0.71012145,-0.16893274,-0.14189586,0.13785633,-0.25698948,-0.07345564,-0.07525921,-0.9369754,0.92978185,-0.70289516,-0.8181369,0.06262088,-0.9231554,0.4085498,-0.48383772,-0.10795326,0.28604174,0.34376374,-0.65178573,-0.21267106,0.090821296,0.39445543,-0.6688139,-0.5644729,0.09059108,-0.20081179,0.3229221,-0.8956405,0.06761803,0.09440423,0.061140127,-0.22830084,-0.15641052,-0.09813607,-0.010712704,-0.16551076,0.24650477,-0.21891136,0.32277894,-0.033613943,-0.18421996,0.11229853,-0.23810972,0.29809242
Q16478,-5.7897763,-1.6726254,-0.64737564,-0.01887124,-0.079287924,-0.40719607,-0.30690455,-0.8394179,-0.3629586,-1.0381846,-0.52526975,-0.655863,-1.3836867,-0.32351568,-1.4476192,0.6885421,-1.3260992,0.6428189,0.07632035,-0.07710492,0.4817129,-1.069681,0.25401366,-0.78297526,-0.75730693,-0.2744779,-0.5477885,-0.03156979,-2.9271863,-1.5497863,-1.113123,-2.1757257,-2.2849016,-1.8452685,-5.992549,3.7160656,-1.8764846,10.355096,7.4301853,2.1878898,-0.38343233,4.4111705,2.7460215,0.08199243,0.06179923,-0.092947714,-0.3961852,0.52859074,-0.11046588,0.34968925,0.27828372,-0.15165474,-0.030304829,0.2857923,-0.049896732,0.06397932,-0.39307868,0.50201714,0.17175457,-0.020246306,0.122517414,0.17072324,-0.39196858,0.2725667
